{"learner":{"attributes":{"scikit_learn":"{\"_estimator_type\": \"regressor\"}"},"feature_names":[],"feature_types":[],"gradient_booster":{"model":{"gbtree_model_param":{"num_parallel_tree":"1","num_trees":"106"},"iteration_indptr":[0,1,2,3,4,5,6,7,8,9,10,11,12,13,14,15,16,17,18,19,20,21,22,23,24,25,26,27,28,29,30,31,32,33,34,35,36,37,38,39,40,41,42,43,44,45,46,47,48,49,50,51,52,53,54,55,56,57,58,59,60,61,62,63,64,65,66,67,68,69,70,71,72,73,74,75,76,77,78,79,80,81,82,83,84,85,86,87,88,89,90,91,92,93,94,95,96,97,98,99,100,101,102,103,104,105,106],"tree_info":[0,0,0,0,0,0,0,0,0,0,0,0,0,0,0,0,0,0,0,0,0,0,0,0,0,0,0,0,0,0,0,0,0,0,0,0,0,0,0,0,0,0,0,0,0,0,0,0,0,0,0,0,0,0,0,0,0,0,0,0,0,0,0,0,0,0,0,0,0,0,0,0,0,0,0,0,0,0,0,0,0,0,0,0,0,0,0,0,0,0,0,0,0,0,0,0,0,0,0,0,0,0,0,0,0,0],"trees":[{"base_weights":[8.424062E-5,3.8146138E3,-2.5254988E3,6.113333E3,2.3171855E3,-9.5086066E2,-3.4201292E3,5.2170703E3,8.681307E3,6.876922E2,4.0329373E3,-1.3980193E3,7.1798627E2,-3.6836306E3,-2.2878306E3,6.851957E3,4.0478755E3,9.11818E3,7.397477E3,1.5853425E3,1.2181055E2,5.7208643E3,2.7235566E3,-8.5652783E2,-2.0431223E3,1.4315613E3,-2.8548782E2,-3.2387876E3,-4.0399294E3,-1.6787434E3,-2.9381104E3,1.0393539E4,6.31608E3,5.234002E3,3.1791582E3,9.6016875E3,8.0826514E3,6.946743E3,1.0328447E4,1.2592051E3,3.8025215E3,-5.0932858E2,1.431891E3,5.0042427E3,8.912027E3,2.1084458E3,5.544697E3,-1.9844552E3,-5.307763E2,-2.795356E3,-1.8180409E3,9.565483E2,2.303393E3,3.2386343E2,-1.1114918E3,-3.6438828E3,-3.0160042E3,-4.25461E3,-3.652781E3,-1.9391426E3,-7.7662384E2,-3.7670926E2,-3.0160159E3,2.0266754E3,3.01161E3,2.0803728E3,1.5635269E3,1.2956296E3,1.8423794E3,1.3138037E3,7.3773035E2,2.6960144E3,2.3392153E3,2.504416E3,1.8344075E3,2.2136765E3,1.6922184E3,2.9296733E3,4.021973E2,5.5240456E1,4.275849E2,1.0385255E3,-3.8685208E2,2.8007298E1,-2.617579E2,5.4503546E2,3.0432248E2,1.6347227E3,1.0174222E3,2.6431248E3,2.1054175E3,7.544745E2,3.9409152E2,1.8979321E3,1.060754E3,-6.434301E2,-4.2571988E2,-1.8251912E2,2.0149266E2,-8.615913E2,-6.488003E2,-4.081631E2,-5.8188043E2,3.874812E2,1.0111376E1,1.5196432E1,7.5631696E2,-2.3245644E1,3.6515985E2,-3.677528E2,-1.3161356E2,-1.0487756E3,-9.333249E2,-7.0380304E2,-8.635172E2,-1.1020343E3,-1.1881636E3,-8.2909863E2,-1.0244901E3,-4.005008E2,-6.4353296E2,7.177612E1,-3.6113882E2,3.666124E2,-5.6277026E2,-7.322571E2,-9.0924396E2],"categories":[],"categories_nodes":[],"categories_segments":[],"categories_sizes":[],"default_left":[0,0,0,0,0,0,0,0,0,0,0,0,0,0,0,0,0,0,0,0,0,0,0,0,0,0,0,0,0,0,0,0,0,0,0,0,0,0,0,0,0,0,0,0,0,0,0,0,0,0,0,0,0,0,0,0,0,0,0,0,0,0,0,0,0,0,0,0,0,0,0,0,0,0,0,0,0,0,0,0,0,0,0,0,0,0,0,0,0,0,0,0,0,0,0,0,0,0,0,0,0,0,0,0,0,0,0,0,0,0,0,0,0,0,0,0,0,0,0,0,0,0,0,0,0,0,0],"id":0,"left_children":[1,3,5,7,9,11,13,15,17,19,21,23,25,27,29,31,33,35,37,39,41,43,45,47,49,51,53,55,57,59,61,63,65,67,69,71,73,75,77,79,81,83,85,87,89,91,93,95,97,99,101,103,105,107,109,111,113,115,117,119,121,123,125,-1,-1,-1,-1,-1,-1,-1,-1,-1,-1,-1,-1,-1,-1,-1,-1,-1,-1,-1,-1,-1,-1,-1,-1,-1,-1,-1,-1,-1,-1,-1,-1,-1,-1,-1,-1,-1,-1,-1,-1,-1,-1,-1,-1,-1,-1,-1,-1,-1,-1,-1,-1,-1,-1,-1,-1,-1,-1,-1,-1,-1,-1,-1,-1],"loss_changes":[2.4093177E11,3.427672E10,2.1193753E10,8.997601E9,1.6867117E10,4.070248E9,2.854355E9,5.544288E9,5.0183373E8,1.572463E9,6.4800195E9,1.5006659E9,8.2601894E8,1.2203377E9,7.135519E8,2.2383452E9,1.7371156E9,2.994094E8,2.7569664E8,8.607688E8,1.571731E9,2.8894413E9,2.8637245E9,8.5871885E8,3.2711168E8,2.7692134E8,2.4195672E8,3.0181376E8,3.432612E8,2.1907584E8,1.7366733E8,2.6324685E8,7.265239E8,4.64171E8,7.290931E8,9.623962E7,3.1512986E8,1.4507725E8,1.3615104E8,3.572338E8,4.065024E7,3.6202998E8,1.0823974E8,1.3402604E9,1.5239782E8,6.0207565E8,6.825503E8,8.140467E7,3.374727E8,6.220723E7,1.529646E8,1.9260077E8,2.6494285E8,1.1692048E8,3.1232544E7,4.169523E7,1.5887565E8,5.202739E7,1.1587174E8,1.438994E8,1.2432151E8,8.280232E7,8.169421E7,0E0,0E0,0E0,0E0,0E0,0E0,0E0,0E0,0E0,0E0,0E0,0E0,0E0,0E0,0E0,0E0,0E0,0E0,0E0,0E0,0E0,0E0,0E0,0E0,0E0,0E0,0E0,0E0,0E0,0E0,0E0,0E0,0E0,0E0,0E0,0E0,0E0,0E0,0E0,0E0,0E0,0E0,0E0,0E0,0E0,0E0,0E0,0E0,0E0,0E0,0E0,0E0,0E0,0E0,0E0,0E0,0E0,0E0,0E0,0E0,0E0,0E0,0E0,0E0],"parents":[2147483647,0,0,1,1,2,2,3,3,4,4,5,5,6,6,7,7,8,8,9,9,10,10,11,11,12,12,13,13,14,14,15,15,16,16,17,17,18,18,19,19,20,20,21,21,22,22,23,23,24,24,25,25,26,26,27,27,28,28,29,29,30,30,31,31,32,32,33,33,34,34,35,35,36,36,37,37,38,38,39,39,40,40,41,41,42,42,43,43,44,44,45,45,46,46,47,47,48,48,49,49,50,50,51,51,52,52,53,53,54,54,55,55,56,56,57,57,58,58,59,59,60,60,61,61,62,62],"right_children":[2,4,6,8,10,12,14,16,18,20,22,24,26,28,30,32,34,36,38,40,42,44,46,48,50,52,54,56,58,60,62,64,66,68,70,72,74,76,78,80,82,84,86,88,90,92,94,96,98,100,102,104,106,108,110,112,114,116,118,120,122,124,126,-1,-1,-1,-1,-1,-1,-1,-1,-1,-1,-1,-1,-1,-1,-1,-1,-1,-1,-1,-1,-1,-1,-1,-1,-1,-1,-1,-1,-1,-1,-1,-1,-1,-1,-1,-1,-1,-1,-1,-1,-1,-1,-1,-1,-1,-1,-1,-1,-1,-1,-1,-1,-1,-1,-1,-1,-1,-1,-1,-1,-1,-1,-1,-1],"split_conditions":[-2.1570854E-1,-9.846093E-1,4.2504212E-1,1.7449376E-1,1.7449376E-1,1.3060651E0,8.534366E-1,-1.4972099E0,-1.1127595E0,-7.283091E-1,-6.0015893E-1,1.6874185E-1,1.6874185E-1,8.094925E-1,9.3764263E-1,-2.0098104E0,6.1496E-1,6.1496E-1,1.5323794E0,-2.781348E-1,-2.781348E-1,2.2113223E0,2.4376366E0,-2.781348E-1,-2.781348E-1,2.4376366E0,-6.8010134E-1,-5.0444907E-1,-5.1820513E-2,1.985008E0,-1.5541967E0,1.2461691E1,-6.8010134E-1,-2.781348E-1,-6.8010134E-1,-1.2409096E0,-6.8010134E-1,-6.8010134E-1,-2.356705E-1,-1.1833919E0,1.4567885E0,-6.0015893E-1,-6.0015893E-1,-7.283091E-1,-6.8010134E-1,-6.8010134E-1,-6.8010134E-1,-7.307633E-1,2.0767171E0,-7.307633E-1,2.96892E-1,-6.8010134E-1,1.1857285E-1,2.4376366E0,2.0767171E0,-7.307633E-1,5.5319226E-1,1.1939429E0,1.7449376E-1,-6.8010134E-1,-6.8010134E-1,-4.086249E-1,1.4502431E0,2.0266754E3,3.01161E3,2.0803728E3,1.5635269E3,1.2956296E3,1.8423794E3,1.3138037E3,7.3773035E2,2.6960144E3,2.3392153E3,2.504416E3,1.8344075E3,2.2136765E3,1.6922184E3,2.9296733E3,4.021973E2,5.5240456E1,4.275849E2,1.0385255E3,-3.8685208E2,2.8007298E1,-2.617579E2,5.4503546E2,3.0432248E2,1.6347227E3,1.0174222E3,2.6431248E3,2.1054175E3,7.544745E2,3.9409152E2,1.8979321E3,1.060754E3,-6.434301E2,-4.2571988E2,-1.8251912E2,2.0149266E2,-8.615913E2,-6.488003E2,-4.081631E2,-5.8188043E2,3.874812E2,1.0111376E1,1.5196432E1,7.5631696E2,-2.3245644E1,3.6515985E2,-3.677528E2,-1.3161356E2,-1.0487756E3,-9.333249E2,-7.0380304E2,-8.635172E2,-1.1020343E3,-1.1881636E3,-8.2909863E2,-1.0244901E3,-4.005008E2,-6.4353296E2,7.177612E1,-3.6113882E2,3.666124E2,-5.6277026E2,-7.322571E2,-9.0924396E2],"split_indices":[16,16,16,6,6,6,6,16,16,16,16,16,16,16,16,16,0,0,6,6,6,6,6,6,6,6,3,6,6,6,7,8,3,6,3,16,3,3,2,6,7,16,16,16,3,3,3,6,10,6,16,3,7,6,10,6,16,16,6,3,3,2,16,0,0,0,0,0,0,0,0,0,0,0,0,0,0,0,0,0,0,0,0,0,0,0,0,0,0,0,0,0,0,0,0,0,0,0,0,0,0,0,0,0,0,0,0,0,0,0,0,0,0,0,0,0,0,0,0,0,0,0,0,0,0,0,0],"split_type":[0,0,0,0,0,0,0,0,0,0,0,0,0,0,0,0,0,0,0,0,0,0,0,0,0,0,0,0,0,0,0,0,0,0,0,0,0,0,0,0,0,0,0,0,0,0,0,0,0,0,0,0,0,0,0,0,0,0,0,0,0,0,0,0,0,0,0,0,0,0,0,0,0,0,0,0,0,0,0,0,0,0,0,0,0,0,0,0,0,0,0,0,0,0,0,0,0,0,0,0,0,0,0,0,0,0,0,0,0,0,0,0,0,0,0,0,0,0,0,0,0,0,0,0,0,0,0],"sum_hessian":[2.5007E4,9.961E3,1.5046E4,3.928E3,6.033E3,5.452E3,9.594E3,2.914E3,1.014E3,3.095E3,2.938E3,4.3E3,1.152E3,7.781E3,1.813E3,1.213E3,1.701E3,7.52E2,2.62E2,1.196E3,1.899E3,1.282E3,1.656E3,2.339E3,1.961E3,6.73E2,4.79E2,3.465E3,4.316E3,9.38E2,8.75E2,1.57E2,1.056E3,7.17E2,9.84E2,5.07E2,2.45E2,2.3E2,3.2E1,1.044E3,1.52E2,1.282E3,6.17E2,1.049E3,2.33E2,1.361E3,2.95E2,5.23E2,1.816E3,4.49E2,1.512E3,4.37E2,2.36E2,2.76E2,2.03E2,1.224E3,2.241E3,2.77E3,1.546E3,7.27E2,2.11E2,2.6E1,8.49E2,3.5E1,1.22E2,2.86E2,7.7E2,5.66E2,1.51E2,2.04E2,7.8E2,3.53E2,1.54E2,1.24E2,1.21E2,7.7E1,1.53E2,3E1,2E0,2.46E2,7.98E2,1.51E2,1E0,5.5E2,7.32E2,2.09E2,4.08E2,5.65E2,4.84E2,1.26E2,1.07E2,6.6E2,7.01E2,1.52E2,1.43E2,2.62E2,2.61E2,1.631E3,1.85E2,2.2E2,2.29E2,7.95E2,7.17E2,2.87E2,1.5E2,4.3E1,1.93E2,1.98E2,7.8E1,1.44E2,5.9E1,5.27E2,6.97E2,6.95E2,1.546E3,1.281E3,1.489E3,3.07E2,1.239E3,3.61E2,3.66E2,7.4E1,1.37E2,1.3E1,1.3E1,4.6E2,3.89E2],"tree_param":{"num_deleted":"0","num_feature":"17","num_nodes":"127","size_leaf_vector":"1"}},{"base_weights":[1.2132019E0,2.990502E3,-1.7377963E3,4.782514E3,2.0518564E3,-3.3969553E2,-2.395595E3,4.1909424E3,6.6687197E3,8.24571E2,3.5287773E3,-7.2134784E2,1.0066324E3,-2.62216E3,-1.6152861E3,7.6191714E3,3.9485576E3,3.8414908E2,6.7102153E3,1.7107649E3,3.7746298E2,5.048874E3,2.7512905E3,-3.2507755E2,-1.1404056E3,1.7009675E3,2.4136598E2,-2.1596443E3,-2.8839358E3,-1.1980605E3,-2.2269316E3,5.535826E3,8.1669863E3,4.881486E3,3.2324365E3,4.8373593E2,-4.375407E2,7.2143613E3,6.21354E3,1.0848059E3,2.2623625E3,7.8438745E0,1.3661964E3,4.5646157E3,7.4282188E3,1.8963705E3,4.262452E3,-1.1827676E3,-1.30241785E1,-1.6167799E3,-9.334093E2,2.2337615E3,1.0196647E3,7.394759E2,-5.1633575E2,-2.5068862E3,-1.9881311E3,-3.1506619E3,-2.7012993E3,-1.3877195E3,-4.7753436E2,-2.7953096E3,-2.0015784E3,7.529678E1,1.5330753E3,2.2162498E3,4.2158063E2,1.4665704E3,1.0420193E3,1.3770956E3,6.882841E2,1.9866122E3,1.0380964E3,1.7838718E3,1.3494758E3,-1.9617094E2,3.3186185E2,5.912284E2,1.5839197E3,-3.3395993E2,5.016176E1,7.596449E2,3.0781006E2,1.4563171E3,1.0611139E3,2.0668193E3,1.1781406E3,8.27649E2,4.314539E2,1.3814822E3,9.0362134E2,-4.2073392E2,-2.2473776E2,-4.3905155E1,4.1171744E2,-4.4820145E2,3.2172424E1,3.3492776E2,-2.750658E2,4.6536124E2,9.037738E2,4.5104733E2,9.192896E1,2.8139032E2,-7.729545E0,-2.1527255E2,1.1068736E2,-7.670468E2,-6.5328955E2,-6.4890063E2,-5.049527E2,-8.0501733E2,-8.9365985E2,-6.8163544E2,-7.9975037E2,-9.8313544E2,-3.62398E2,-2.2841837E2,9.709358E1,-7.777786E2,-1.8292952E2,-5.549981E1,-5.566748E2],"categories":[],"categories_nodes":[],"categories_segments":[],"categories_sizes":[],"default_left":[0,0,0,0,0,0,0,0,0,0,0,0,0,0,0,0,0,0,0,0,0,0,0,0,0,0,0,0,0,0,0,0,0,0,0,0,0,0,0,0,0,0,0,0,0,0,0,0,0,0,0,0,0,0,0,0,0,0,0,0,0,0,0,0,0,0,0,0,0,0,0,0,0,0,0,0,0,0,0,0,0,0,0,0,0,0,0,0,0,0,0,0,0,0,0,0,0,0,0,0,0,0,0,0,0,0,0,0,0,0,0,0,0,0,0,0,0,0,0,0,0,0,0],"id":1,"left_children":[1,3,5,7,9,11,13,15,17,19,21,23,25,27,29,31,33,35,37,39,41,43,45,47,49,51,53,55,57,59,61,63,65,67,69,-1,-1,71,73,75,77,79,81,83,85,87,89,91,93,95,97,99,101,103,105,107,109,111,113,115,117,119,121,-1,-1,-1,-1,-1,-1,-1,-1,-1,-1,-1,-1,-1,-1,-1,-1,-1,-1,-1,-1,-1,-1,-1,-1,-1,-1,-1,-1,-1,-1,-1,-1,-1,-1,-1,-1,-1,-1,-1,-1,-1,-1,-1,-1,-1,-1,-1,-1,-1,-1,-1,-1,-1,-1,-1,-1,-1,-1,-1,-1],"loss_changes":[1.3000681E11,1.5461818E10,1.4540067E10,3.49918E9,1.0941585E10,2.6007014E9,1.8966118E9,1.9716751E9,1.93792E8,1.3064988E9,3.2243937E9,6.544045E8,5.936402E8,1.00245504E9,6.1541274E8,1.351127E8,1.4887608E9,1.9832372E7,1.4247117E8,3.7942272E8,8.01797E8,1.033046E9,2.3367578E9,5.4276883E8,1.8742323E8,2.1043674E8,2.0154602E8,1.7457971E8,2.5049907E8,1.9639283E8,1.2005683E8,2.5333632E7,2.0775936E7,5.2798464E8,1.6167424E9,0E0,0E0,1.4815027E8,1.5059149E8,1.3682202E8,1.4080282E8,3.5416794E8,1.92203E8,3.849902E8,7.427174E7,4.0008192E8,4.9518387E8,6.988736E7,3.4256406E8,4.3643904E7,2.4952602E8,1.8057882E8,1.139273E8,7.489899E7,5.5501852E7,2.2081536E7,9.456691E7,4.814643E7,1.3827072E8,1.121175E8,9.345681E7,4.793728E7,7.588429E7,0E0,0E0,0E0,0E0,0E0,0E0,0E0,0E0,0E0,0E0,0E0,0E0,0E0,0E0,0E0,0E0,0E0,0E0,0E0,0E0,0E0,0E0,0E0,0E0,0E0,0E0,0E0,0E0,0E0,0E0,0E0,0E0,0E0,0E0,0E0,0E0,0E0,0E0,0E0,0E0,0E0,0E0,0E0,0E0,0E0,0E0,0E0,0E0,0E0,0E0,0E0,0E0,0E0,0E0,0E0,0E0,0E0,0E0,0E0,0E0],"parents":[2147483647,0,0,1,1,2,2,3,3,4,4,5,5,6,6,7,7,8,8,9,9,10,10,11,11,12,12,13,13,14,14,15,15,16,16,17,17,18,18,19,19,20,20,21,21,22,22,23,23,24,24,25,25,26,26,27,27,28,28,29,29,30,30,31,31,32,32,33,33,34,34,37,37,38,38,39,39,40,40,41,41,42,42,43,43,44,44,45,45,46,46,47,47,48,48,49,49,50,50,51,51,52,52,53,53,54,54,55,55,56,56,57,57,58,58,59,59,60,60,61,61,62,62],"right_children":[2,4,6,8,10,12,14,16,18,20,22,24,26,28,30,32,34,36,38,40,42,44,46,48,50,52,54,56,58,60,62,64,66,68,70,-1,-1,72,74,76,78,80,82,84,86,88,90,92,94,96,98,100,102,104,106,108,110,112,114,116,118,120,122,-1,-1,-1,-1,-1,-1,-1,-1,-1,-1,-1,-1,-1,-1,-1,-1,-1,-1,-1,-1,-1,-1,-1,-1,-1,-1,-1,-1,-1,-1,-1,-1,-1,-1,-1,-1,-1,-1,-1,-1,-1,-1,-1,-1,-1,-1,-1,-1,-1,-1,-1,-1,-1,-1,-1,-1,-1,-1,-1,-1],"split_conditions":[-3.4385866E-1,-1.1127595E0,2.96892E-1,-5.1820513E-2,1.7449376E-1,1.3060651E0,6.271223E-1,-2.0098104E0,-4.5601397E0,-8.564592E-1,-7.283091E-1,4.059172E-2,4.059172E-2,6.8134236E-1,9.3764263E-1,1.2461691E1,6.1496E-1,-1.5313882E-1,-1.3690597E0,-7.307633E-1,-2.781348E-1,1.5323794E0,1.3060651E0,-2.781348E-1,-5.5053496E-1,-6.8010134E-1,-6.8010134E-1,-5.0444907E-1,-2.781348E-1,1.985008E0,1.0797509E0,-4.5601397E0,-5.0444907E-1,-1.3690597E0,-6.8010134E-1,4.8373593E2,-4.375407E2,1.5323794E0,6.1496E-1,-1.6360204E0,2.1390598E0,-1.4097061E0,-7.283091E-1,-6.8010134E-1,6.1496E-1,-6.792319E-2,-6.8010134E-1,-7.307633E-1,2.0767171E0,2.0767171E0,-2.1598105E-1,2.4376366E0,-6.792319E-2,1.1222346E0,2.0767171E0,-1.1833919E0,-5.5053496E-1,1.0657928E0,1.1939429E0,-4.5601397E0,7.876807E-1,1.4567885E0,-1.5541967E0,7.529678E1,1.5330753E3,2.2162498E3,4.2158063E2,1.4665704E3,1.0420193E3,1.3770956E3,6.882841E2,1.9866122E3,1.0380964E3,1.7838718E3,1.3494758E3,-1.9617094E2,3.3186185E2,5.912284E2,1.5839197E3,-3.3395993E2,5.016176E1,7.596449E2,3.0781006E2,1.4563171E3,1.0611139E3,2.0668193E3,1.1781406E3,8.27649E2,4.314539E2,1.3814822E3,9.0362134E2,-4.2073392E2,-2.2473776E2,-4.3905155E1,4.1171744E2,-4.4820145E2,3.2172424E1,3.3492776E2,-2.750658E2,4.6536124E2,9.037738E2,4.5104733E2,9.192896E1,2.8139032E2,-7.729545E0,-2.1527255E2,1.1068736E2,-7.670468E2,-6.5328955E2,-6.4890063E2,-5.049527E2,-8.0501733E2,-8.9365985E2,-6.8163544E2,-7.9975037E2,-9.8313544E2,-3.62398E2,-2.2841837E2,9.709358E1,-7.777786E2,-1.8292952E2,-5.549981E1,-5.566748E2],"split_indices":[16,16,16,6,6,6,6,16,9,16,16,16,16,16,16,8,0,14,16,6,6,6,6,6,7,3,3,6,6,6,6,9,6,16,3,0,0,6,0,6,3,6,16,3,0,10,3,6,10,10,7,6,10,7,10,6,7,16,16,9,7,7,7,0,0,0,0,0,0,0,0,0,0,0,0,0,0,0,0,0,0,0,0,0,0,0,0,0,0,0,0,0,0,0,0,0,0,0,0,0,0,0,0,0,0,0,0,0,0,0,0,0,0,0,0,0,0,0,0,0,0,0,0],"split_type":[0,0,0,0,0,0,0,0,0,0,0,0,0,0,0,0,0,0,0,0,0,0,0,0,0,0,0,0,0,0,0,0,0,0,0,0,0,0,0,0,0,0,0,0,0,0,0,0,0,0,0,0,0,0,0,0,0,0,0,0,0,0,0,0,0,0,0,0,0,0,0,0,0,0,0,0,0,0,0,0,0,0,0,0,0,0,0,0,0,0,0,0,0,0,0,0,0,0,0,0,0,0,0,0,0,0,0,0,0,0,0,0,0,0,0,0,0,0,0,0,0,0,0],"sum_hessian":[2.5007E4,9.197E3,1.581E4,3.16E3,6.037E3,5.059E3,1.0751E4,2.408E3,7.52E2,3.298E3,2.739E3,3.942E3,1.117E3,8.33E3,2.421E3,1.57E2,2.251E3,5E0,7.47E2,1.105E3,2.193E3,9.25E2,1.814E3,2.027E3,1.915E3,5.85E2,5.32E2,3.014E3,5.316E3,1.441E3,9.8E2,3.5E1,1.22E2,9.75E2,1.276E3,3E0,2E0,3.64E2,3.83E2,5.19E2,5.86E2,1.597E3,5.96E2,7.71E2,1.54E2,1.16E3,6.54E2,5.4E2,1.487E3,5.78E2,1.337E3,3.27E2,2.58E2,3.21E2,2.11E2,9.92E2,2.022E3,2.154E3,3.162E3,1.14E3,3.01E2,2.75E2,7.05E2,1E0,3.4E1,1.21E2,1E0,6.31E2,3.44E2,3.4E2,9.36E2,3.48E2,1.6E1,2.86E2,9.7E1,3.8E1,4.81E2,5.76E2,1E1,1.99E2,1.398E3,7.9E1,5.17E2,3.31E2,4.4E2,1.42E2,1.2E1,2.34E2,9.26E2,3.36E2,3.18E2,2.59E2,2.81E2,1.356E3,1.31E2,5.64E2,1.4E1,5E1,1.287E3,2.26E2,1.01E2,1.31E2,1.27E2,2.3E2,9.1E1,1.62E2,4.9E1,1.99E2,7.93E2,4.43E2,1.579E3,1.054E3,1.1E3,1.891E3,1.271E3,2.1E1,1.119E3,2.09E2,9.2E1,2.64E2,1.1E1,2.3E1,6.82E2],"tree_param":{"num_deleted":"0","num_feature":"17","num_nodes":"123","size_leaf_vector":"1"}},{"base_weights":[1.688149E0,2.186048E3,-1.2690565E3,3.2863354E3,1.3653239E3,-3.9770035E2,-1.8335122E3,2.6943577E3,4.4543477E3,7.419364E2,2.9567107E3,-6.6020105E2,5.7011334E2,-1.9742983E3,-1.2285336E3,3.4505413E3,1.5513196E3,4.8188325E3,3.6507102E3,2.1968155E2,1.4077185E3,3.8797163E3,2.126591E3,-2.3744342E2,-9.5932544E2,1.5387019E3,1.6238562E2,-1.7821973E3,-2.2196858E3,-9.099758E2,-1.5685988E3,5.1608853E3,3.1365054E3,1.2549934E3,2.5907346E3,5.605951E3,4.4113613E3,4.7400186E3,2.937293E3,7.19659E2,-2.6429633E2,2.9855554E3,1.1069241E3,4.714832E3,3.057161E3,1.1632401E3,2.8866738E3,-8.998454E2,-2.0675331E1,-1.341035E3,-7.597513E2,2.1069353E3,8.751175E2,7.63022E2,-1.22581215E2,-2.076626E3,-1.6314688E3,-2.3304827E3,-2.0188688E3,-1.2524436E2,-1.0908245E3,-1.4856537E2,-1.6118604E3,-3.7898682E2,1.432431E3,1.1375728E3,7.417612E2,3.232041E2,1.561189E3,1.00864307E3,3.8698865E2,-3.0086526E2,1.5265765E3,1.4074867E3,9.362489E2,-6.4784314E2,1.3199974E3,4.9746997E2,9.4142664E2,9.3219086E1,2.8617087E2,-7.8756366E2,-5.710375E1,1.0397482E3,6.807132E2,4.2214465E2,1.920817E2,1.4287793E3,1.0335881E3,6.800476E2,1.1241984E3,3.6681216E2,-9.665207E2,1.091835E3,6.6040845E2,-3.075727E2,-1.7224164E2,-3.405266E1,2.9350507E2,-4.6148093E2,-3.1575476E2,1.0367862E2,-2.2069154E2,7.3580164E2,4.7523755E2,2.6049527E2,-9.123975E2,2.7658886E1,4.983415E2,2.3884401E2,-8.377044E1,-3.2023056E2,-5.718959E2,-2.4912988E2,-4.8150818E2,-6.337081E2,-4.364731E2,-5.491577E2,3.692124E2,8.813932E1,-2.2149251E2,-1.1677358E1,-3.4164563E2,-4.3831158E2,3.076673E2,-4.4308942E2,3.3387726E1],"categories":[],"categories_nodes":[],"categories_segments":[],"categories_sizes":[],"default_left":[0,0,0,0,0,0,0,0,0,0,0,0,0,0,0,0,0,0,0,0,0,0,0,0,0,0,0,0,0,0,0,0,0,0,0,0,0,0,0,0,0,0,0,0,0,0,0,0,0,0,0,0,0,0,0,0,0,0,0,0,0,0,0,0,0,0,0,0,0,0,0,0,0,0,0,0,0,0,0,0,0,0,0,0,0,0,0,0,0,0,0,0,0,0,0,0,0,0,0,0,0,0,0,0,0,0,0,0,0,0,0,0,0,0,0,0,0,0,0,0,0,0,0,0,0,0,0],"id":2,"left_children":[1,3,5,7,9,11,13,15,17,19,21,23,25,27,29,31,33,35,37,39,41,43,45,47,49,51,53,55,57,59,61,63,65,67,69,71,73,75,77,79,81,83,85,87,89,91,93,95,97,99,101,103,105,107,109,111,113,115,117,119,121,123,125,-1,-1,-1,-1,-1,-1,-1,-1,-1,-1,-1,-1,-1,-1,-1,-1,-1,-1,-1,-1,-1,-1,-1,-1,-1,-1,-1,-1,-1,-1,-1,-1,-1,-1,-1,-1,-1,-1,-1,-1,-1,-1,-1,-1,-1,-1,-1,-1,-1,-1,-1,-1,-1,-1,-1,-1,-1,-1,-1,-1,-1,-1,-1,-1],"loss_changes":[6.9419065E10,8.301609E9,7.775785E9,2.7046543E9,5.2259123E9,1.5798164E9,8.14805E8,2.2505943E9,3.690537E8,1.3168084E9,1.1280323E9,6.182739E8,5.2380944E8,3.6288102E8,1.9508378E8,8.2707456E8,3.173829E8,2.6552934E8,3.0936422E8,5.1415152E8,7.8691226E8,4.671232E8,5.6997555E8,2.9117706E8,2.1715866E8,1.4634496E8,1.6012947E8,1.9054797E8,7.123354E7,1.331241E8,5.357568E7,2.3686707E8,5.4541824E8,2.06075E8,2.9945306E8,1.047593E8,4.3657114E8,1.8496384E8,1.4637414E8,1.3275066E8,1.5064803E8,9.718912E7,2.5169958E8,1.5675238E8,2.0162893E8,3.2632685E8,2.1296998E8,3.0612896E7,1.7873258E8,6.002931E7,1.2441882E8,4.044352E7,7.308038E7,2.150871E8,1.2030775E8,5.204941E7,3.1002368E8,2.2170624E7,6.5002496E7,5.583984E7,1.3944672E8,5.3140812E7,4.329549E7,0E0,0E0,0E0,0E0,0E0,0E0,0E0,0E0,0E0,0E0,0E0,0E0,0E0,0E0,0E0,0E0,0E0,0E0,0E0,0E0,0E0,0E0,0E0,0E0,0E0,0E0,0E0,0E0,0E0,0E0,0E0,0E0,0E0,0E0,0E0,0E0,0E0,0E0,0E0,0E0,0E0,0E0,0E0,0E0,0E0,0E0,0E0,0E0,0E0,0E0,0E0,0E0,0E0,0E0,0E0,0E0,0E0,0E0,0E0,0E0,0E0,0E0,0E0,0E0],"parents":[2147483647,0,0,1,1,2,2,3,3,4,4,5,5,6,6,7,7,8,8,9,9,10,10,11,11,12,12,13,13,14,14,15,15,16,16,17,17,18,18,19,19,20,20,21,21,22,22,23,23,24,24,25,25,26,26,27,27,28,28,29,29,30,30,31,31,32,32,33,33,34,34,35,35,36,36,37,37,38,38,39,39,40,40,41,41,42,42,43,43,44,44,45,45,46,46,47,47,48,48,49,49,50,50,51,51,52,52,53,53,54,54,55,55,56,56,57,57,58,58,59,59,60,60,61,61,62,62],"right_children":[2,4,6,8,10,12,14,16,18,20,22,24,26,28,30,32,34,36,38,40,42,44,46,48,50,52,54,56,58,60,62,64,66,68,70,72,74,76,78,80,82,84,86,88,90,92,94,96,98,100,102,104,106,108,110,112,114,116,118,120,122,124,126,-1,-1,-1,-1,-1,-1,-1,-1,-1,-1,-1,-1,-1,-1,-1,-1,-1,-1,-1,-1,-1,-1,-1,-1,-1,-1,-1,-1,-1,-1,-1,-1,-1,-1,-1,-1,-1,-1,-1,-1,-1,-1,-1,-1,-1,-1,-1,-1,-1,-1,-1,-1,-1,-1,-1,-1,-1,-1,-1,-1,-1,-1,-1,-1],"split_conditions":[-3.4385866E-1,-9.846093E-1,4.2504212E-1,-2.781348E-1,4.0080804E-1,1.3060651E0,8.534366E-1,-1.3690597E0,6.1496E-1,-2.781348E-1,-6.8010134E-1,4.059172E-2,-8.755841E-2,9.3764263E-1,9.3764263E-1,-1.9738619E0,7.876807E-1,-6.792319E-2,-6.8010134E-1,-7.283091E-1,-8.564592E-1,-6.0015893E-1,1.3060651E0,-5.0444907E-1,-5.1820513E-2,-6.8010134E-1,-6.792319E-2,-5.5053496E-1,-5.1820513E-2,-2.1598105E-1,-1.5541967E0,-4.5601397E0,-6.8010134E-1,2.0767171E0,1.1222346E0,-4.5601397E0,-1.2409096E0,1.7449376E-1,-1.5860245E-1,-1.2196428E0,-2.3149633E0,-6.8010134E-1,-6.0015893E-1,6.1496E-1,2.2113223E0,2.0767171E0,-7.283091E-1,-7.307633E-1,2.0767171E0,-7.307633E-1,-6.792319E-2,-1.0088212E0,1.4567885E0,2.4376366E0,-2.1598105E-1,-1.5541967E0,1.1857285E-1,2.8598945E0,4.7821465E0,2.0767171E0,-6.792319E-2,2.0767171E0,5.038447E0,-3.7898682E2,1.432431E3,1.1375728E3,7.417612E2,3.232041E2,1.561189E3,1.00864307E3,3.8698865E2,-3.0086526E2,1.5265765E3,1.4074867E3,9.362489E2,-6.4784314E2,1.3199974E3,4.9746997E2,9.4142664E2,9.3219086E1,2.8617087E2,-7.8756366E2,-5.710375E1,1.0397482E3,6.807132E2,4.2214465E2,1.920817E2,1.4287793E3,1.0335881E3,6.800476E2,1.1241984E3,3.6681216E2,-9.665207E2,1.091835E3,6.6040845E2,-3.075727E2,-1.7224164E2,-3.405266E1,2.9350507E2,-4.6148093E2,-3.1575476E2,1.0367862E2,-2.2069154E2,7.3580164E2,4.7523755E2,2.6049527E2,-9.123975E2,2.7658886E1,4.983415E2,2.3884401E2,-8.377044E1,-3.2023056E2,-5.718959E2,-2.4912988E2,-4.8150818E2,-6.337081E2,-4.364731E2,-5.491577E2,3.692124E2,8.813932E1,-2.2149251E2,-1.1677358E1,-3.4164563E2,-4.3831158E2,3.076673E2,-4.4308942E2,3.3387726E1],"split_indices":[16,16,16,6,6,6,6,16,0,6,3,16,16,16,16,2,7,10,3,16,16,16,6,6,6,3,10,7,6,7,7,9,3,10,7,9,16,6,13,7,6,3,16,0,6,10,16,6,10,6,10,1,7,6,7,7,7,16,16,10,10,10,16,0,0,0,0,0,0,0,0,0,0,0,0,0,0,0,0,0,0,0,0,0,0,0,0,0,0,0,0,0,0,0,0,0,0,0,0,0,0,0,0,0,0,0,0,0,0,0,0,0,0,0,0,0,0,0,0,0,0,0,0,0,0,0,0],"split_type":[0,0,0,0,0,0,0,0,0,0,0,0,0,0,0,0,0,0,0,0,0,0,0,0,0,0,0,0,0,0,0,0,0,0,0,0,0,0,0,0,0,0,0,0,0,0,0,0,0,0,0,0,0,0,0,0,0,0,0,0,0,0,0,0,0,0,0,0,0,0,0,0,0,0,0,0,0,0,0,0,0,0,0,0,0,0,0,0,0,0,0,0,0,0,0,0,0,0,0,0,0,0,0,0,0,0,0,0,0,0,0,0,0,0,0,0,0,0,0,0,0,0,0,0,0,0,0],"sum_hessian":[2.5007E4,9.197E3,1.581E4,3.928E3,5.269E3,6.216E3,9.594E3,2.609E3,1.319E3,3.787E3,1.482E3,4.89E3,1.326E3,7.781E3,1.813E3,1.569E3,1.04E3,9.04E2,4.15E2,2.123E3,1.664E3,7E2,7.82E2,2.027E3,2.863E3,3.92E2,9.34E2,4.369E3,3.412E3,9.38E2,8.75E2,2.41E2,1.328E3,8.11E2,2.29E2,3.04E2,6E2,1.62E2,2.53E2,1.044E3,1.079E3,2.65E2,1.399E3,3.45E2,3.55E2,3.46E2,4.36E2,4.99E2,1.528E3,9.81E2,1.882E3,2.1E2,1.82E2,3E2,6.34E2,1.475E3,2.894E3,2.192E3,1.22E3,1.76E2,7.62E2,2.6E1,8.49E2,5E0,2.36E2,3.5E2,9.78E2,8.02E2,9E0,1.14E2,1.15E2,2E0,3.02E2,3.22E2,2.78E2,3E0,1.59E2,8.6E1,1.67E2,4.98E2,5.46E2,2E1,1.059E3,9E1,1.75E2,6.48E2,7.51E2,2.06E2,1.39E2,2.41E2,1.14E2,3.33E2,1.3E1,1.18E2,3.18E2,2.59E2,2.4E2,1.396E3,1.32E2,3.09E2,6.72E2,9E1,1.792E3,7.3E1,1.37E2,1.79E2,3E0,1.87E2,1.13E2,9.9E1,5.35E2,6.7E1,1.408E3,5.12E2,2.382E3,2.14E3,5.2E1,1.215E3,5E0,1.07E2,6.9E1,1.09E2,6.53E2,1.2E1,1.4E1,8.35E2,1.4E1],"tree_param":{"num_deleted":"0","num_feature":"17","num_nodes":"127","size_leaf_vector":"1"}},{"base_weights":[1.848481E0,1.7451349E3,-8.569452E2,2.6995488E3,1.3013175E3,-9.105319E1,-1.2845455E3,3.3678303E3,2.1053416E3,5.977636E2,2.2663796E3,1.0260735E3,-2.6596323E2,-1.533027E3,-1.0603951E3,4.8564824E3,3.2041558E3,3.1343562E3,1.6651913E3,1.6680544E2,9.435815E2,1.9665037E3,3.7517773E3,6.853516E2,1.8366914E3,-4.1497412E2,6.571581E2,-1.1405829E3,-1.6197648E3,-9.316814E2,-1.4517625E3,5.203058E3,3.1686162E3,2.7035532E3,3.9712112E3,1.7857363E3,3.9069966E3,2.6202803E3,1.2727593E3,-1.023487E3,2.975194E2,8.7732324E2,3.5214092E3,2.8206218E3,1.4384825E3,4.56293E3,3.3133052E3,1.0865394E3,3.3043378E2,2.4550044E3,1.218528E3,-1.4477855E2,-6.79484E2,1.3121678E3,2.4648425E2,3.064519E2,-1.1647454E3,-2.3458708E3,-1.60227E3,-1.00313776E3,-1.6888702E2,-1.6056589E3,-1.149337E3,-2.7225195E2,1.4249219E3,4.6676517E2,1.072104E3,6.4130566E2,1.0141901E3,1.0776476E3,-6.455709E2,1.4930301E2,5.398884E2,1.1023649E3,7.027033E2,-6.6455524E2,7.3959393E2,2.5864383E2,5.5939856E2,-6.7325885E2,-1.7899083E2,2.5450954E2,3.4654495E1,3.0941196E2,1.3166525E2,1.196801E3,3.2053503E2,9.4468896E2,6.5648804E2,5.54977E2,2.4634402E2,1.2644928E3,-1.6480963E2,1.0125177E3,7.509691E2,-5.3420105E2,3.1427667E2,1.289715E2,-5.451821E1,7.506121E2,9.213218E1,2.607721E2,9.327174E2,8.0938286E1,-1.1764468E2,-1.2490812E2,-2.3104895E2,-4.129446E2,3.9044962E2,1.8430684E0,3.0492807E2,-1.2939348E2,2.2296266E2,-5.2660876E2,-3.048985E2,-6.458717E2,-3.1009352E1,-4.439431E2,-3.636728E2,-3.9802274E2,-2.4691924E2,3.896884E2,-8.421385E1,-4.3823392E2,2.4556445E2,-3.8109103E2,-2.2655989E2],"categories":[],"categories_nodes":[],"categories_segments":[],"categories_sizes":[],"default_left":[0,0,0,0,0,0,0,0,0,0,0,0,0,0,0,0,0,0,0,0,0,0,0,0,0,0,0,0,0,0,0,0,0,0,0,0,0,0,0,0,0,0,0,0,0,0,0,0,0,0,0,0,0,0,0,0,0,0,0,0,0,0,0,0,0,0,0,0,0,0,0,0,0,0,0,0,0,0,0,0,0,0,0,0,0,0,0,0,0,0,0,0,0,0,0,0,0,0,0,0,0,0,0,0,0,0,0,0,0,0,0,0,0,0,0,0,0,0,0,0,0,0,0,0,0,0,0],"id":3,"left_children":[1,3,5,7,9,11,13,15,17,19,21,23,25,27,29,31,33,35,37,39,41,43,45,47,49,51,53,55,57,59,61,63,65,67,69,71,73,75,77,79,81,83,85,87,89,91,93,95,97,99,101,103,105,107,109,111,113,115,117,119,121,123,125,-1,-1,-1,-1,-1,-1,-1,-1,-1,-1,-1,-1,-1,-1,-1,-1,-1,-1,-1,-1,-1,-1,-1,-1,-1,-1,-1,-1,-1,-1,-1,-1,-1,-1,-1,-1,-1,-1,-1,-1,-1,-1,-1,-1,-1,-1,-1,-1,-1,-1,-1,-1,-1,-1,-1,-1,-1,-1,-1,-1,-1,-1,-1,-1],"loss_changes":[3.7441556E10,3.4927616E9,5.4870733E9,1.03291085E9,3.8253384E9,1.1734346E9,5.972316E8,2.843771E8,6.238879E8,4.8583923E8,1.05097626E9,2.2328794E8,7.144589E8,1.716521E8,2.8356454E8,5.3710336E7,4.162601E8,4.2545254E8,3.6210227E8,2.2637366E8,3.0589222E8,8.884567E8,1.2643738E8,8.13721E7,8.874099E7,3.1944128E8,1.9389123E8,3.2733568E7,4.923904E7,2.3197389E8,6.322048E7,5.062835E7,1.9699696E7,2.2473984E8,6.5360896E7,3.9229216E7,4.969523E7,1.778121E8,1.7235187E8,7.46732E7,1.4284275E8,1.842098E8,9.044973E7,1.9077888E8,3.95754E8,8.81751E7,5.0439936E7,6.61592E7,2.4081598E7,8.081171E7,6.559896E7,2.8635664E8,8.594867E7,1.080208E8,9.4149416E7,6.9243105E6,2.3200128E7,9.630304E6,4.146893E7,1.6119834E8,8.4837816E7,4.198272E7,3.743968E7,0E0,0E0,0E0,0E0,0E0,0E0,0E0,0E0,0E0,0E0,0E0,0E0,0E0,0E0,0E0,0E0,0E0,0E0,0E0,0E0,0E0,0E0,0E0,0E0,0E0,0E0,0E0,0E0,0E0,0E0,0E0,0E0,0E0,0E0,0E0,0E0,0E0,0E0,0E0,0E0,0E0,0E0,0E0,0E0,0E0,0E0,0E0,0E0,0E0,0E0,0E0,0E0,0E0,0E0,0E0,0E0,0E0,0E0,0E0,0E0,0E0,0E0,0E0,0E0],"parents":[2147483647,0,0,1,1,2,2,3,3,4,4,5,5,6,6,7,7,8,8,9,9,10,10,11,11,12,12,13,13,14,14,15,15,16,16,17,17,18,18,19,19,20,20,21,21,22,22,23,23,24,24,25,25,26,26,27,27,28,28,29,29,30,30,31,31,32,32,33,33,34,34,35,35,36,36,37,37,38,38,39,39,40,40,41,41,42,42,43,43,44,44,45,45,46,46,47,47,48,48,49,49,50,50,51,51,52,52,53,53,54,54,55,55,56,56,57,57,58,58,59,59,60,60,61,61,62,62],"right_children":[2,4,6,8,10,12,14,16,18,20,22,24,26,28,30,32,34,36,38,40,42,44,46,48,50,52,54,56,58,60,62,64,66,68,70,72,74,76,78,80,82,84,86,88,90,92,94,96,98,100,102,104,106,108,110,112,114,116,118,120,122,124,126,-1,-1,-1,-1,-1,-1,-1,-1,-1,-1,-1,-1,-1,-1,-1,-1,-1,-1,-1,-1,-1,-1,-1,-1,-1,-1,-1,-1,-1,-1,-1,-1,-1,-1,-1,-1,-1,-1,-1,-1,-1,-1,-1,-1,-1,-1,-1,-1,-1,-1,-1,-1,-1,-1,-1,-1,-1,-1,-1,-1,-1,-1,-1,-1],"split_conditions":[-4.720088E-1,-1.2409096E0,2.96892E-1,6.1496E-1,1.7449376E-1,-6.792319E-2,-5.1820513E-2,-1.8816602E0,-6.8010134E-1,-7.307633E-1,2.4376366E0,2.4376366E0,2.0767171E0,5.5319226E-1,1.1939429E0,-5.0444907E-1,-5.0444907E-1,-7.307633E-1,-1.7535101E0,-1.6360204E0,2.0767171E0,-8.564592E-1,-7.283091E-1,-8.755841E-2,-6.8010134E-1,-6.8010134E-1,-8.755841E-2,-6.792319E-2,-4.5601397E0,1.7586937E0,1.0797509E0,-4.5601397E0,-5.1820513E-2,7.876807E-1,5.9111657E0,-9.570776E-1,-1.3690597E0,-4.5601397E0,7.876807E-1,-2.3149633E0,6.1496E-1,-7.283091E-1,-7.283091E-1,-6.792319E-2,-6.8010134E-1,7.242263E-1,-6.8010134E-1,-1.3123115E0,1.1222346E0,2.6639507E0,3.1165793E0,-8.755841E-2,-8.755841E-2,-1.3598739E0,1.7586937E0,5.190558E-1,-1.2906922E0,3.3724952E0,6.9186854E-1,-5.5053496E-1,-2.1598105E-1,4.6539965E0,-3.039041E-2,-2.7225195E2,1.4249219E3,4.6676517E2,1.072104E3,6.4130566E2,1.0141901E3,1.0776476E3,-6.455709E2,1.4930301E2,5.398884E2,1.1023649E3,7.027033E2,-6.6455524E2,7.3959393E2,2.5864383E2,5.5939856E2,-6.7325885E2,-1.7899083E2,2.5450954E2,3.4654495E1,3.0941196E2,1.3166525E2,1.196801E3,3.2053503E2,9.4468896E2,6.5648804E2,5.54977E2,2.4634402E2,1.2644928E3,-1.6480963E2,1.0125177E3,7.509691E2,-5.3420105E2,3.1427667E2,1.289715E2,-5.451821E1,7.506121E2,9.213218E1,2.607721E2,9.327174E2,8.0938286E1,-1.1764468E2,-1.2490812E2,-2.3104895E2,-4.129446E2,3.9044962E2,1.8430684E0,3.0492807E2,-1.2939348E2,2.2296266E2,-5.2660876E2,-3.048985E2,-6.458717E2,-3.1009352E1,-4.439431E2,-3.636728E2,-3.9802274E2,-2.4691924E2,3.896884E2,-8.421385E1,-4.3823392E2,2.4556445E2,-3.8109103E2,-2.2655989E2],"split_indices":[16,16,16,0,6,10,6,16,3,6,6,6,10,16,16,6,6,6,16,6,10,16,16,16,3,3,16,10,9,6,6,9,6,7,14,6,16,9,7,6,0,16,16,10,3,2,3,2,7,6,6,16,16,2,6,12,2,16,13,7,7,16,15,0,0,0,0,0,0,0,0,0,0,0,0,0,0,0,0,0,0,0,0,0,0,0,0,0,0,0,0,0,0,0,0,0,0,0,0,0,0,0,0,0,0,0,0,0,0,0,0,0,0,0,0,0,0,0,0,0,0,0,0,0,0,0,0],"split_type":[0,0,0,0,0,0,0,0,0,0,0,0,0,0,0,0,0,0,0,0,0,0,0,0,0,0,0,0,0,0,0,0,0,0,0,0,0,0,0,0,0,0,0,0,0,0,0,0,0,0,0,0,0,0,0,0,0,0,0,0,0,0,0,0,0,0,0,0,0,0,0,0,0,0,0,0,0,0,0,0,0,0,0,0,0,0,0,0,0,0,0,0,0,0,0,0,0,0,0,0,0,0,0,0,0,0,0,0,0,0,0,0,0,0,0,0,0,0,0,0,0,0,0,0,0,0,0],"sum_hessian":[2.5007E4,8.253E3,1.6754E4,2.618E3,5.635E3,6.003E3,1.0751E4,1.23E3,1.388E3,3.26E3,2.375E3,8.12E2,5.191E3,5.096E3,5.655E3,1.19E2,1.111E3,4.14E2,9.74E2,1.452E3,1.808E3,1.978E3,3.97E2,5.73E2,2.39E2,4.47E3,7.21E2,9.25E2,4.171E3,4.258E3,1.397E3,9.7E1,2.2E1,6.75E2,4.36E2,1.52E2,2.62E2,2.82E2,6.92E2,1.43E2,1.309E3,1.764E3,4.4E1,7.54E2,1.224E3,1.36E2,2.61E2,2.68E2,3.05E2,1.18E2,1.21E2,2.212E3,2.258E3,2.77E2,4.44E2,1.5E1,9.1E2,9.5E1,4.076E3,3.893E3,3.65E2,9.23E2,4.74E2,1E0,9.6E1,9E0,1.3E1,5.17E2,1.58E2,4.35E2,1E0,2.3E1,1.29E2,2.29E2,3.3E1,6E0,2.76E2,4.98E2,1.94E2,2.7E1,1.16E2,2.71E2,1.038E3,1.043E3,7.21E2,3.1E1,1.3E1,2.72E2,4.82E2,5.62E2,6.62E2,1.33E2,3E0,1.4E2,1.21E2,6E0,2.62E2,2.39E2,6.6E1,1.02E2,1.6E1,1.1E2,1.1E1,8.75E2,1.337E3,1.014E3,1.244E3,1.2E1,2.65E2,3.5E2,9.4E1,6E0,9E0,3.7E1,8.73E2,9.3E1,2E0,3.496E3,5.8E2,6.14E2,3.279E3,2.9E1,3.36E2,9.17E2,6E0,2.55E2,2.19E2],"tree_param":{"num_deleted":"0","num_feature":"17","num_nodes":"127","size_leaf_vector":"1"}},{"base_weights":[1.8791013E0,1.2757449E3,-6.256643E2,1.8091028E3,8.2184766E2,-6.617206E1,-9.3803094E2,2.6674614E3,1.5466636E3,1.5393379E3,4.972737E2,-2.6709595E2,4.6551733E2,-6.393369E2,-1.0540236E3,3.060579E3,2.0042545E3,2.3247488E3,1.1024084E3,2.29409E3,1.2165056E3,1.103216E3,1.3483565E2,-6.539855E2,-1.2456972E2,8.5512054E2,1.0362158E2,7.2651117E2,-6.8846796E2,-8.44568E2,-1.1604235E3,-1.2290435E3,3.086119E3,1.3043584E3,2.743868E3,3.2948137E3,2.098442E3,8.244219E2,2.9235432E3,1.3080919E3,2.8589707E3,1.065099E3,2.8523723E3,-1.3972337E2,1.2998738E3,-4.0038868E1,6.2629504E2,-8.447966E2,-4.8475455E2,1.9739827E2,-3.2847943E2,1.354898E3,4.9967563E2,4.9569165E2,-2.6903638E2,3.5481538E3,6.087359E2,-1.2564285E3,-5.8498553E2,-1.4736949E2,-8.789625E2,-1.274794E3,-1.053989E3,-2.0603716E1,-4.2871985E2,7.998187E2,9.981942E2,-1.25647514E2,3.730829E2,6.7190515E2,9.7859064E2,7.3820996E2,1.0630652E3,5.358985E2,1.2530916E3,1.8114288E2,3.9501285E2,1.0844329E3,6.229354E2,3.2314633E2,9.335384E2,1.0366385E3,7.2537396E2,3.1998593E2,-1.1723503E2,5.918436E2,1.075585E3,5.3809082E1,-1.0397617E2,3.1102795E2,7.208966E2,-4.366498E1,1.6025221E2,3.2438144E2,6.872665E1,-2.3561006E2,4.9253088E2,-1.2471778E2,-5.900719E2,2.3941244E1,3.1402472E2,1.2774702E2,-1.02065445E2,6.5596857E2,3.222393E2,1.1922612E2,4.9685272E2,4.2581024E1,2.8781366E2,-1.4061989E2,2.9743004E1,1.17186E3,1.5821301E2,8.927738E1,4.333236E2,-2.7249228E2,-3.76951E2,1.4040173E0,-2.2221416E2,-1.2123441E2,6.127221E1,-2.5310667E2,-1.1767391E2,-3.847269E2,-3.197466E2,-2.915308E2,7.032258E1],"categories":[],"categories_nodes":[],"categories_segments":[],"categories_sizes":[],"default_left":[0,0,0,0,0,0,0,0,0,0,0,0,0,0,0,0,0,0,0,0,0,0,0,0,0,0,0,0,0,0,0,0,0,0,0,0,0,0,0,0,0,0,0,0,0,0,0,0,0,0,0,0,0,0,0,0,0,0,0,0,0,0,0,0,0,0,0,0,0,0,0,0,0,0,0,0,0,0,0,0,0,0,0,0,0,0,0,0,0,0,0,0,0,0,0,0,0,0,0,0,0,0,0,0,0,0,0,0,0,0,0,0,0,0,0,0,0,0,0,0,0,0,0,0,0,0,0],"id":4,"left_children":[1,3,5,7,9,11,13,15,17,19,21,23,25,27,29,31,33,35,37,39,41,43,45,47,49,51,53,55,57,59,61,63,65,67,69,71,73,75,77,79,81,83,85,87,89,91,93,95,97,99,101,103,105,107,109,111,113,115,117,119,121,123,125,-1,-1,-1,-1,-1,-1,-1,-1,-1,-1,-1,-1,-1,-1,-1,-1,-1,-1,-1,-1,-1,-1,-1,-1,-1,-1,-1,-1,-1,-1,-1,-1,-1,-1,-1,-1,-1,-1,-1,-1,-1,-1,-1,-1,-1,-1,-1,-1,-1,-1,-1,-1,-1,-1,-1,-1,-1,-1,-1,-1,-1,-1,-1,-1],"loss_changes":[1.9992347E10,1.9967222E9,2.928154E9,8.505354E8,1.0381061E9,6.415262E8,3.718441E8,2.2512282E8,1.0026409E9,3.356508E8,6.7473286E8,2.4022694E8,2.3213136E8,2.0248768E8,1.7158042E8,6.459699E7,1.6879936E8,2.2491187E8,9.356731E8,2.2740326E8,2.3845107E8,2.8128026E8,1.653808E8,3.746797E7,2.0923339E8,1.4019411E8,1.25055736E8,3.2733696E7,1.7006195E8,6.250573E7,6.112819E7,1.5332695E6,3.080448E7,2.4349152E7,2.7177984E7,6.0560896E7,2.3897651E8,1.5676096E8,1.5577062E8,3.2449536E7,3.413939E7,1.6140544E8,5.2525696E7,1.3220076E7,1.9817088E8,1.09569944E8,1.0766376E8,4.244941E7,2.322576E7,1.2966807E8,7.765824E7,5.4169984E7,3.5401936E7,8.020749E7,4.197007E7,6.841744E6,2.772464E7,1.4025984E7,3.455897E8,1.4102427E7,6.408077E7,3.187328E7,9.046605E7,0E0,0E0,0E0,0E0,0E0,0E0,0E0,0E0,0E0,0E0,0E0,0E0,0E0,0E0,0E0,0E0,0E0,0E0,0E0,0E0,0E0,0E0,0E0,0E0,0E0,0E0,0E0,0E0,0E0,0E0,0E0,0E0,0E0,0E0,0E0,0E0,0E0,0E0,0E0,0E0,0E0,0E0,0E0,0E0,0E0,0E0,0E0,0E0,0E0,0E0,0E0,0E0,0E0,0E0,0E0,0E0,0E0,0E0,0E0,0E0,0E0,0E0,0E0,0E0],"parents":[2147483647,0,0,1,1,2,2,3,3,4,4,5,5,6,6,7,7,8,8,9,9,10,10,11,11,12,12,13,13,14,14,15,15,16,16,17,17,18,18,19,19,20,20,21,21,22,22,23,23,24,24,25,25,26,26,27,27,28,28,29,29,30,30,31,31,32,32,33,33,34,34,35,35,36,36,37,37,38,38,39,39,40,40,41,41,42,42,43,43,44,44,45,45,46,46,47,47,48,48,49,49,50,50,51,51,52,52,53,53,54,54,55,55,56,56,57,57,58,58,59,59,60,60,61,61,62,62],"right_children":[2,4,6,8,10,12,14,16,18,20,22,24,26,28,30,32,34,36,38,40,42,44,46,48,50,52,54,56,58,60,62,64,66,68,70,72,74,76,78,80,82,84,86,88,90,92,94,96,98,100,102,104,106,108,110,112,114,116,118,120,122,124,126,-1,-1,-1,-1,-1,-1,-1,-1,-1,-1,-1,-1,-1,-1,-1,-1,-1,-1,-1,-1,-1,-1,-1,-1,-1,-1,-1,-1,-1,-1,-1,-1,-1,-1,-1,-1,-1,-1,-1,-1,-1,-1,-1,-1,-1,-1,-1,-1,-1,-1,-1,-1,-1,-1,-1,-1,-1,-1,-1,-1,-1,-1,-1,-1],"split_conditions":[-4.720088E-1,6.1496E-1,2.96892E-1,-6.792319E-2,-1.2409096E0,1.0797509E0,-6.8010134E-1,-7.283091E-1,-1.2409096E0,-6.8010134E-1,-6.8010134E-1,-2.781348E-1,-6.8010134E-1,-6.792319E-2,6.8134236E-1,-4.5601397E0,1.985008E0,-1.7535101E0,2.0767171E0,-7.307633E-1,1.2461691E1,-9.570776E-1,-2.781348E-1,-7.307633E-1,-8.755841E-2,-8.755841E-2,-8.755841E-2,-1.9738619E0,-5.5053496E-1,-6.792319E-2,-3.712202E-1,-1.0088212E0,1.9675751E0,-1.2196428E0,4.4010836E-1,1.4141711E0,2.0767171E0,7.876807E-1,-8.564592E-1,1.7480351E0,-2.1598105E-1,-6.334656E-1,-1.088441E0,-8.564592E-1,2.0767171E0,7.876807E-1,-7.283091E-1,2.1390598E0,2.0767171E0,2.0767171E0,-6.792319E-2,-2.1598105E-1,1.4567885E0,7.876807E-1,2.6663303E-1,-7.266523E-1,2.4376366E0,5.5319226E-1,4.5312676E-1,5.4015297E-2,2.0767171E0,-4.5811298E-1,2.8598945E0,-2.0603716E1,-4.2871985E2,7.998187E2,9.981942E2,-1.25647514E2,3.730829E2,6.7190515E2,9.7859064E2,7.3820996E2,1.0630652E3,5.358985E2,1.2530916E3,1.8114288E2,3.9501285E2,1.0844329E3,6.229354E2,3.2314633E2,9.335384E2,1.0366385E3,7.2537396E2,3.1998593E2,-1.1723503E2,5.918436E2,1.075585E3,5.3809082E1,-1.0397617E2,3.1102795E2,7.208966E2,-4.366498E1,1.6025221E2,3.2438144E2,6.872665E1,-2.3561006E2,4.9253088E2,-1.2471778E2,-5.900719E2,2.3941244E1,3.1402472E2,1.2774702E2,-1.02065445E2,6.5596857E2,3.222393E2,1.1922612E2,4.9685272E2,4.2581024E1,2.8781366E2,-1.4061989E2,2.9743004E1,1.17186E3,1.5821301E2,8.927738E1,4.333236E2,-2.7249228E2,-3.76951E2,1.4040173E0,-2.2221416E2,-1.2123441E2,6.127221E1,-2.5310667E2,-1.1767391E2,-3.847269E2,-3.197466E2,-2.915308E2,7.032258E1],"split_indices":[16,0,16,10,16,6,3,16,16,3,3,6,3,10,16,9,6,16,10,6,8,6,6,6,16,16,16,2,7,10,13,1,13,7,14,11,10,7,16,15,7,2,15,16,10,7,16,3,10,10,10,7,7,7,13,1,6,16,7,13,10,15,16,0,0,0,0,0,0,0,0,0,0,0,0,0,0,0,0,0,0,0,0,0,0,0,0,0,0,0,0,0,0,0,0,0,0,0,0,0,0,0,0,0,0,0,0,0,0,0,0,0,0,0,0,0,0,0,0,0,0,0,0,0,0,0,0],"split_type":[0,0,0,0,0,0,0,0,0,0,0,0,0,0,0,0,0,0,0,0,0,0,0,0,0,0,0,0,0,0,0,0,0,0,0,0,0,0,0,0,0,0,0,0,0,0,0,0,0,0,0,0,0,0,0,0,0,0,0,0,0,0,0,0,0,0,0,0,0,0,0,0,0,0,0,0,0,0,0,0,0,0,0,0,0,0,0,0,0,0,0,0,0,0,0,0,0,0,0,0,0,0,0,0,0,0,0,0,0,0,0,0,0,0,0,0,0,0,0,0,0,0,0,0,0,0,0],"sum_hessian":[2.5007E4,8.253E3,1.6754E4,3.793E3,4.46E3,6.003E3,1.0751E4,8.86E2,2.907E3,1.388E3,3.072E3,4.357E3,1.646E3,3.009E3,7.742E3,5.54E2,3.32E2,1.055E3,1.852E3,4.14E2,9.74E2,1.149E3,1.923E3,1.172E3,3.185E3,7.92E2,8.54E2,1.04E2,2.905E3,2.611E3,5.131E3,3E0,5.51E2,1.72E2,1.6E2,1.97E2,8.58E2,1.608E3,2.44E2,1.52E2,2.62E2,8.93E2,8.1E1,1.57E2,9.92E2,1.419E3,5.04E2,5.49E2,6.23E2,1.235E3,1.95E3,3.28E2,4.64E2,4.16E2,4.38E2,3E0,1.01E2,4.46E2,2.459E3,1.23E2,2.488E3,2.468E3,2.663E3,1E0,2E0,4.63E2,8.8E1,7E0,1.65E2,1.27E2,3.3E1,1.08E2,8.9E1,8.23E2,3.5E1,1.298E3,3.1E2,8.6E1,1.58E2,1.46E2,6E0,3.6E1,2.26E2,8.27E2,6.6E1,5.3E1,2.8E1,6.6E1,9.1E1,8.97E2,9.5E1,1.191E3,2.28E2,1.97E2,3.07E2,5.44E2,5E0,6.16E2,7E0,1.111E3,1.24E2,1.13E2,1.837E3,4.1E1,2.87E2,4.46E2,1.8E1,2.62E2,1.54E2,2.63E2,1.75E2,2E0,1E0,8E1,2.1E1,1.64E2,2.82E2,7.07E2,1.752E3,6.8E1,5.5E1,2.197E3,2.91E2,9.23E2,1.545E3,2.612E3,5.1E1],"tree_param":{"num_deleted":"0","num_feature":"17","num_nodes":"127","size_leaf_vector":"1"}},{"base_weights":[2.0453594E0,7.499332E2,-5.6919574E2,1.2342823E3,3.4875745E2,-2.875165E2,-7.694331E2,9.3309045E2,1.7669213E3,7.067243E1,9.040478E2,-4.348353E2,-1.2577364E1,-8.2820526E2,-5.128381E2,1.7321711E3,6.8644586E2,1.7252228E3,4.1293193E3,1.1975024E3,1.8728815E1,1.3380544E3,4.8125558E2,-2.0093777E3,-4.2189975E2,2.0496867E2,-3.1926688E2,-1.5408303E3,-8.127475E2,-3.9055777E2,-7.6363495E2,1.1100375E3,2.2232578E3,1.1806968E3,5.208556E2,1.6305288E3,2.7121594E3,1.1851367E3,1.9510599E3,1.7758562E3,8.614865E2,2.5746997E2,-1.23494995E2,1.8340332E3,8.987475E2,7.0599774E2,-4.4768787E2,2.2332437E2,-6.3407336E2,-7.3443005E2,-3.6720697E2,9.6113914E1,1.1355188E3,-5.315114E2,1.276507E1,-1.5858925E3,-2.5510808E2,-1.0331659E3,-7.695783E2,-5.0378897E2,-2.0153551E1,4.0113083E2,-8.2756213E2,1.006607E2,4.8638583E2,7.615348E2,4.718854E2,1.750721E2,4.6926416E2,1.0092989E2,3.105819E2,2.9096597E2,4.790466E2,-1.7475006E2,7.645427E2,6.018019E2,1.1336177E2,1.1432085E3,4.1510632E2,3.952923E2,1.6545677E2,-6.430098E1,1.0332558E2,3.0470675E1,-9.712981E1,5.393701E2,1.756833E2,-2.0275203E2,2.609204E2,-1.5333916E2,2.4333965E2,-3.7808636E2,4.5175064E1,-3.249837E2,8.007114E2,-1.6758386E2,-3.0313937E2,-7.933276E1,-1.6064429E2,6.168168E1,-9.094814E1,2.4525574E2,7.1293536E2,-2.2756764E2,-8.227856E1,-4.8424816E1,1.344538E2,-3.8747E2,-5.1107248E2,3.3112985E2,-3.5166617E2,-2.9852594E2,-2.4569574E2,-2.1865042E2,-1.3781541E2,-8.216672E1,-2.0402798E2,1.8903497E2,-8.588319E1,-9.636015E1,1.0281055E3,-2.5497453E2,-4.121492E1],"categories":[],"categories_nodes":[],"categories_segments":[],"categories_sizes":[],"default_left":[0,0,0,0,0,0,0,0,0,0,0,0,0,0,0,0,0,0,0,0,0,0,0,0,0,0,0,0,0,0,0,0,0,0,0,0,0,0,0,0,0,0,0,0,0,0,0,0,0,0,0,0,0,0,0,0,0,0,0,0,0,0,0,0,0,0,0,0,0,0,0,0,0,0,0,0,0,0,0,0,0,0,0,0,0,0,0,0,0,0,0,0,0,0,0,0,0,0,0,0,0,0,0,0,0,0,0,0,0,0,0,0,0,0,0,0,0,0,0,0,0,0,0],"id":5,"left_children":[1,3,5,7,9,11,13,15,17,19,21,23,25,27,29,31,33,35,37,39,41,43,45,47,49,51,53,55,57,59,61,63,65,67,69,71,73,-1,75,77,79,81,83,85,87,89,91,93,-1,95,97,99,101,103,105,107,109,111,113,115,117,119,121,-1,-1,-1,-1,-1,-1,-1,-1,-1,-1,-1,-1,-1,-1,-1,-1,-1,-1,-1,-1,-1,-1,-1,-1,-1,-1,-1,-1,-1,-1,-1,-1,-1,-1,-1,-1,-1,-1,-1,-1,-1,-1,-1,-1,-1,-1,-1,-1,-1,-1,-1,-1,-1,-1,-1,-1,-1,-1,-1,-1],"loss_changes":[1.0684453E10,2.1039375E9,7.995126E8,7.854039E8,9.1486234E8,2.3868282E8,1.2454861E8,6.1688166E8,1.673344E8,2.3111898E8,3.6212493E8,7.730272E7,1.3730661E8,7.300352E7,4.7144416E7,2.2331238E8,1.9564493E8,1.5838003E8,8.431424E6,3.2284592E7,1.2824466E8,2.1079142E8,2.0971514E8,2.399084E7,6.480384E7,1.2184982E8,6.018985E7,7.82256E6,6.200627E7,4.369269E7,3.80088E7,1.6651248E8,1.1208205E8,1.7715994E8,1.6598342E8,1.2458547E8,6.244096E7,0E0,1.191294E6,3.0415248E7,1.5885648E7,8.7596344E7,1.3220526E8,8.719206E7,5.8624576E7,2.014986E8,1.1506509E8,2.31352E7,0E0,2.4303168E7,5.401309E7,6.1899732E7,4.0678144E7,3.652709E7,3.1223822E7,3.626208E6,1.0907425E7,8.619264E6,5.717888E7,3.986155E7,5.2798624E7,7.108167E7,3.7690304E7,0E0,0E0,0E0,0E0,0E0,0E0,0E0,0E0,0E0,0E0,0E0,0E0,0E0,0E0,0E0,0E0,0E0,0E0,0E0,0E0,0E0,0E0,0E0,0E0,0E0,0E0,0E0,0E0,0E0,0E0,0E0,0E0,0E0,0E0,0E0,0E0,0E0,0E0,0E0,0E0,0E0,0E0,0E0,0E0,0E0,0E0,0E0,0E0,0E0,0E0,0E0,0E0,0E0,0E0,0E0,0E0,0E0,0E0,0E0,0E0],"parents":[2147483647,0,0,1,1,2,2,3,3,4,4,5,5,6,6,7,7,8,8,9,9,10,10,11,11,12,12,13,13,14,14,15,15,16,16,17,17,18,18,19,19,20,20,21,21,22,22,23,23,24,24,25,25,26,26,27,27,28,28,29,29,30,30,31,31,32,32,33,33,34,34,35,35,36,36,38,38,39,39,40,40,41,41,42,42,43,43,44,44,45,45,46,46,47,47,49,49,50,50,51,51,52,52,53,53,54,54,55,55,56,56,57,57,58,58,59,59,60,60,61,61,62,62],"right_children":[2,4,6,8,10,12,14,16,18,20,22,24,26,28,30,32,34,36,38,40,42,44,46,48,50,52,54,56,58,60,62,64,66,68,70,72,74,-1,76,78,80,82,84,86,88,90,92,94,-1,96,98,100,102,104,106,108,110,112,114,116,118,120,122,-1,-1,-1,-1,-1,-1,-1,-1,-1,-1,-1,-1,-1,-1,-1,-1,-1,-1,-1,-1,-1,-1,-1,-1,-1,-1,-1,-1,-1,-1,-1,-1,-1,-1,-1,-1,-1,-1,-1,-1,-1,-1,-1,-1,-1,-1,-1,-1,-1,-1,-1,-1,-1,-1,-1,-1,-1,-1,-1,-1],"split_conditions":[-8.755841E-2,-8.564592E-1,5.5319226E-1,-2.781348E-1,4.0080804E-1,6.271223E-1,8.534366E-1,-1.62536E0,2.1390598E0,-6.792319E-2,-6.8010134E-1,-4.5601397E0,-6.8010134E-1,-4.5601397E0,1.322093E0,2.6663303E-1,7.294792E-1,2.0767171E0,-9.846093E-1,-6.0015893E-1,-6.8010134E-1,-4.720088E-1,6.1496E-1,-8.1506765E-1,-7.307633E-1,1.2485299E0,2.6663303E-1,2.8598945E0,-7.307633E-1,1.5323794E0,-2.0689955E0,-7.541384E-2,6.1496E-1,-7.307633E-1,7.876807E-1,1.7449376E-1,-1.7191867E0,1.1851367E3,-7.266523E-1,-1.4549989E0,-4.8272058E-1,-1.2196428E0,-6.0015893E-1,1.1133736E0,-5.5053496E-1,1.0797509E0,-3.712202E-1,-2.1458564E0,-6.3407336E2,-9.570776E-1,1.1222346E0,1.1222346E0,1.9694978E0,-1.20437264E-1,1.985008E0,1.7449376E-1,4.5312676E-1,-1.5860245E-1,2.0767171E0,2.0767171E0,-6.8010134E-1,5.166597E0,1.4567885E0,1.006607E2,4.8638583E2,7.615348E2,4.718854E2,1.750721E2,4.6926416E2,1.0092989E2,3.105819E2,2.9096597E2,4.790466E2,-1.7475006E2,7.645427E2,6.018019E2,1.1336177E2,1.1432085E3,4.1510632E2,3.952923E2,1.6545677E2,-6.430098E1,1.0332558E2,3.0470675E1,-9.712981E1,5.393701E2,1.756833E2,-2.0275203E2,2.609204E2,-1.5333916E2,2.4333965E2,-3.7808636E2,4.5175064E1,-3.249837E2,8.007114E2,-1.6758386E2,-3.0313937E2,-7.933276E1,-1.6064429E2,6.168168E1,-9.094814E1,2.4525574E2,7.1293536E2,-2.2756764E2,-8.227856E1,-4.8424816E1,1.344538E2,-3.8747E2,-5.1107248E2,3.3112985E2,-3.5166617E2,-2.9852594E2,-2.4569574E2,-2.1865042E2,-1.3781541E2,-8.216672E1,-2.0402798E2,1.8903497E2,-8.588319E1,-9.636015E1,1.0281055E3,-2.5497453E2,-4.121492E1],"split_indices":[16,16,16,6,6,6,6,16,3,10,3,9,3,9,16,13,3,10,16,16,3,16,0,2,6,1,13,16,6,6,2,15,0,6,7,6,2,0,1,2,14,7,16,2,7,6,13,2,0,6,7,7,2,15,6,6,7,13,10,10,3,16,7,0,0,0,0,0,0,0,0,0,0,0,0,0,0,0,0,0,0,0,0,0,0,0,0,0,0,0,0,0,0,0,0,0,0,0,0,0,0,0,0,0,0,0,0,0,0,0,0,0,0,0,0,0,0,0,0,0,0,0,0],"split_type":[0,0,0,0,0,0,0,0,0,0,0,0,0,0,0,0,0,0,0,0,0,0,0,0,0,0,0,0,0,0,0,0,0,0,0,0,0,0,0,0,0,0,0,0,0,0,0,0,0,0,0,0,0,0,0,0,0,0,0,0,0,0,0,0,0,0,0,0,0,0,0,0,0,0,0,0,0,0,0,0,0,0,0,0,0,0,0,0,0,0,0,0,0,0,0,0,0,0,0,0,0,0,0,0,0,0,0,0,0,0,0,0,0,0,0,0,0,0,0,0,0,0,0],"sum_hessian":[2.5007E4,1.0829E4,1.4178E4,4.905E3,5.924E3,5.892E3,8.286E3,3.135E3,1.77E3,3.948E3,1.976E3,3.836E3,2.056E3,6.74E3,1.546E3,7.38E2,2.397E3,1.741E3,2.9E1,1.73E2,3.775E3,9.74E2,1.002E3,3E1,3.806E3,1.203E3,8.53E2,1.41E2,6.599E3,1.041E3,5.05E2,3.27E2,4.11E2,6E2,1.797E3,1.591E3,1.5E2,2.5E1,4E0,6.2E1,1.11E2,1.409E3,2.366E3,4.56E2,5.18E2,8.07E2,1.95E2,4E0,2.6E1,5.65E2,3.241E3,1.078E3,1.25E2,5.2E2,3.33E2,1.36E2,5E0,1.077E3,5.522E3,7.97E2,2.44E2,2.6E1,4.79E2,1.59E2,1.68E2,1.8E2,2.31E2,3.08E2,2.92E2,1.458E3,3.39E2,3.3E2,1.261E3,5E0,1.45E2,3E0,1E0,4E0,5.8E1,3.1E1,8E1,2.84E2,1.125E3,1.183E3,1.183E3,4E2,5.6E1,2E1,4.98E2,1.07E2,7E2,7.6E1,1.19E2,3E0,1E0,4.39E2,1.26E2,2.453E3,7.88E2,8.26E2,2.52E2,1.1E2,1.5E1,2.18E2,3.02E2,2.39E2,9.4E1,9.5E1,4.1E1,2E0,3E0,6.73E2,4.04E2,4.778E3,7.44E2,4.46E2,3.51E2,7.1E1,1.73E2,2.2E1,4E0,4.08E2,7.1E1],"tree_param":{"num_deleted":"0","num_feature":"17","num_nodes":"123","size_leaf_vector":"1"}},{"base_weights":[1.7820706E0,6.898936E2,-3.3720178E2,1.019869E3,4.0910077E2,2.5066198E1,-4.7928152E2,1.3838533E3,7.700256E2,-4.498582E1,5.845124E2,5.953716E2,-7.386478E1,-2.9663718E2,-5.6185114E2,1.0945477E3,1.6898737E3,4.670268E2,1.3183204E3,-2.305636E3,1.0869729E1,1.2589731E3,3.6232834E2,3.7880276E2,1.0934296E3,-1.513074E2,4.4256015E2,-3.5644107E2,6.2516445E1,-5.0741187E2,-7.460935E2,8.131457E2,1.6428219E3,2.082061E3,1.3981763E3,3.899082E2,1.6161312E3,9.834322E2,1.6417131E3,-1.0855231E3,-1.7094121E3,-3.5204428E2,1.4546706E2,1.2977195E3,-2.2776687E3,8.4619666E2,1.310898E2,6.930171E2,1.0286534E2,1.27198586E2,1.3695615E3,-4.153304E2,-5.034982E1,2.4586806E2,1.1416722E3,1.5049849E2,-3.9943542E2,4.0031987E3,3.282555E1,-6.713631E2,-4.3798694E2,-7.706658E2,-4.507951E1,1.8907E2,7.570706E2,5.993002E2,3.2515256E2,-2.8223917E2,5.849313E2,3.5458344E2,7.524439E2,2.6360004E2,7.7156166E1,6.467948E2,2.42779E2,1.1852448E3,2.507343E2,3.160328E2,5.165768E2,-4.770817E2,-5.2056213E1,-5.3219403E2,-7.682515E1,-9.757329E1,6.7934875E1,4.3363785E2,2.3387741E2,-8.433143E2,1.2282149E2,-7.704189E2,2.3977834E2,-8.870238E1,7.549695E1,-3.7511572E2,2.1462572E2,4.744081E1,-2.7634488E2,5.548156E2,-2.5581465E1,5.1953644E2,2.2097305E2,-1.0336313E2,-4.8481253E2,5.353221E2,-4.0398487E1,1.3181554E2,-9.338466E1,2.542983E2,1.7418783E3,-2.1749514E1,1.5316765E2,-7.379454E1,-1.4509958E2,1.8176215E2,1.3199768E3,-2.2258597E2,4.1484184E1,-1.8832254E2,1.011658E2,7.66214E1,-1.3106032E2,-1.1773715E1,-2.1371983E2,1.5745595E2,-2.0329367E2],"categories":[],"categories_nodes":[],"categories_segments":[],"categories_sizes":[],"default_left":[0,0,0,0,0,0,0,0,0,0,0,0,0,0,0,0,0,0,0,0,0,0,0,0,0,0,0,0,0,0,0,0,0,0,0,0,0,0,0,0,0,0,0,0,0,0,0,0,0,0,0,0,0,0,0,0,0,0,0,0,0,0,0,0,0,0,0,0,0,0,0,0,0,0,0,0,0,0,0,0,0,0,0,0,0,0,0,0,0,0,0,0,0,0,0,0,0,0,0,0,0,0,0,0,0,0,0,0,0,0,0,0,0,0,0,0,0,0,0,0,0,0,0,0,0],"id":6,"left_children":[1,3,5,7,9,11,13,15,17,19,21,23,25,27,29,31,33,35,37,39,41,43,45,47,49,51,53,55,57,59,61,63,65,67,69,71,73,75,77,-1,79,81,83,85,87,89,91,93,95,97,99,101,103,105,107,109,111,113,115,117,119,121,123,-1,-1,-1,-1,-1,-1,-1,-1,-1,-1,-1,-1,-1,-1,-1,-1,-1,-1,-1,-1,-1,-1,-1,-1,-1,-1,-1,-1,-1,-1,-1,-1,-1,-1,-1,-1,-1,-1,-1,-1,-1,-1,-1,-1,-1,-1,-1,-1,-1,-1,-1,-1,-1,-1,-1,-1,-1,-1,-1,-1,-1,-1],"loss_changes":[5.8335657E9,7.643548E8,8.624078E8,3.4395725E8,3.5535424E8,2.6640691E8,1.8133171E8,1.3475738E8,3.7351514E8,1.5710477E8,4.8177536E8,7.487475E7,1.6100002E8,8.054624E7,8.274022E7,1.2147546E8,8.265997E7,1.2804221E8,8.513408E7,2.3799888E7,5.940063E7,1.1217011E8,2.708843E8,4.224001E7,5.6122144E7,9.3272024E7,7.191197E7,7.011098E7,6.2581864E7,7.25527E7,3.2486976E7,1.1669734E8,6.5373504E7,8.588877E7,4.727405E7,8.289723E7,4.8696256E7,6.982637E7,4.970931E7,0E0,1.754328E6,3.539765E7,4.7810484E7,1.035881E8,2.2219588E7,1.2382598E8,1.120485E8,4.948033E7,2.1593826E7,2.0730872E7,4.8558336E7,4.274131E7,5.1152406E8,5.910633E7,1.1594168E8,2.4313308E7,5.1412704E7,8.505152E6,5.5328788E7,5.22448E7,1.5412723E8,2.7667712E7,2.9345426E7,0E0,0E0,0E0,0E0,0E0,0E0,0E0,0E0,0E0,0E0,0E0,0E0,0E0,0E0,0E0,0E0,0E0,0E0,0E0,0E0,0E0,0E0,0E0,0E0,0E0,0E0,0E0,0E0,0E0,0E0,0E0,0E0,0E0,0E0,0E0,0E0,0E0,0E0,0E0,0E0,0E0,0E0,0E0,0E0,0E0,0E0,0E0,0E0,0E0,0E0,0E0,0E0,0E0,0E0,0E0,0E0,0E0,0E0,0E0,0E0,0E0,0E0],"parents":[2147483647,0,0,1,1,2,2,3,3,4,4,5,5,6,6,7,7,8,8,9,9,10,10,11,11,12,12,13,13,14,14,15,15,16,16,17,17,18,18,19,19,20,20,21,21,22,22,23,23,24,24,25,25,26,26,27,27,28,28,29,29,30,30,31,31,32,32,33,33,34,34,35,35,36,36,37,37,38,38,40,40,41,41,42,42,43,43,44,44,45,45,46,46,47,47,48,48,49,49,50,50,51,51,52,52,53,53,54,54,55,55,56,56,57,57,58,58,59,59,60,60,61,61,62,62],"right_children":[2,4,6,8,10,12,14,16,18,20,22,24,26,28,30,32,34,36,38,40,42,44,46,48,50,52,54,56,58,60,62,64,66,68,70,72,74,76,78,-1,80,82,84,86,88,90,92,94,96,98,100,102,104,106,108,110,112,114,116,118,120,122,124,-1,-1,-1,-1,-1,-1,-1,-1,-1,-1,-1,-1,-1,-1,-1,-1,-1,-1,-1,-1,-1,-1,-1,-1,-1,-1,-1,-1,-1,-1,-1,-1,-1,-1,-1,-1,-1,-1,-1,-1,-1,-1,-1,-1,-1,-1,-1,-1,-1,-1,-1,-1,-1,-1,-1,-1,-1,-1,-1,-1,-1,-1],"split_conditions":[-4.720088E-1,6.1496E-1,1.6874185E-1,-1.1127595E0,-1.2196428E0,-6.792319E-2,5.5319226E-1,4.792508E-1,1.0797509E0,-2.3149633E0,4.5312676E-1,2.4376366E0,2.0767171E0,2.0767171E0,1.4502431E0,7.876807E-1,-1.4972099E0,2.0767171E0,7.876807E-1,-9.846093E-1,-1.1833919E0,1.8128678E0,-1.3690597E0,1.3060651E0,7.876807E-1,-5.5053496E-1,9.044863E-1,-6.792319E-2,-1.8887506E0,-5.5053496E-1,3.5006454E0,2.0767171E0,-3.712202E-1,-1.8623347E0,2.0767171E0,-6.792319E-2,-6.8010134E-1,-1.8887506E0,-2.5550756E-1,-1.0855231E3,-6.50761E-1,-1.62536E0,-1.0209059E0,-8.564592E-1,4.792508E-1,-4.5601397E0,-7.307633E-1,-1.4343089E0,1.2776803E0,-7.964557E-1,-6.8010134E-1,1.3060651E0,-2.1598105E-1,7.876807E-1,1.4567885E0,1.5323794E0,1.1857285E-1,6.1496E-1,-3.1351727E-1,2.0767171E0,-2.1598105E-1,-1.5541967E0,-1.678136E0,1.8907E2,7.570706E2,5.993002E2,3.2515256E2,-2.8223917E2,5.849313E2,3.5458344E2,7.524439E2,2.6360004E2,7.7156166E1,6.467948E2,2.42779E2,1.1852448E3,2.507343E2,3.160328E2,5.165768E2,-4.770817E2,-5.2056213E1,-5.3219403E2,-7.682515E1,-9.757329E1,6.7934875E1,4.3363785E2,2.3387741E2,-8.433143E2,1.2282149E2,-7.704189E2,2.3977834E2,-8.870238E1,7.549695E1,-3.7511572E2,2.1462572E2,4.744081E1,-2.7634488E2,5.548156E2,-2.5581465E1,5.1953644E2,2.2097305E2,-1.0336313E2,-4.8481253E2,5.353221E2,-4.0398487E1,1.3181554E2,-9.338466E1,2.542983E2,1.7418783E3,-2.1749514E1,1.5316765E2,-7.379454E1,-1.4509958E2,1.8176215E2,1.3199768E3,-2.2258597E2,4.1484184E1,-1.8832254E2,1.011658E2,7.66214E1,-1.3106032E2,-1.1773715E1,-2.1371983E2,1.5745595E2,-2.0329367E2],"split_indices":[16,0,16,16,7,10,16,13,6,6,7,6,10,10,16,7,16,10,7,16,6,1,16,6,7,7,13,10,7,7,16,10,13,6,10,10,3,7,15,0,2,16,15,16,13,9,6,13,2,13,3,6,7,7,7,6,7,0,2,10,7,7,2,0,0,0,0,0,0,0,0,0,0,0,0,0,0,0,0,0,0,0,0,0,0,0,0,0,0,0,0,0,0,0,0,0,0,0,0,0,0,0,0,0,0,0,0,0,0,0,0,0,0,0,0,0,0,0,0,0,0,0,0,0,0],"split_type":[0,0,0,0,0,0,0,0,0,0,0,0,0,0,0,0,0,0,0,0,0,0,0,0,0,0,0,0,0,0,0,0,0,0,0,0,0,0,0,0,0,0,0,0,0,0,0,0,0,0,0,0,0,0,0,0,0,0,0,0,0,0,0,0,0,0,0,0,0,0,0,0,0,0,0,0,0,0,0,0,0,0,0,0,0,0,0,0,0,0,0,0,0,0,0,0,0,0,0,0,0,0,0,0,0,0,0,0,0,0,0,0,0,0,0,0,0,0,0,0,0,0,0,0,0],"sum_hessian":[2.5007E4,8.253E3,1.6754E4,3.793E3,4.46E3,4.72E3,1.2034E4,1.542E3,2.251E3,1.243E3,3.217E3,6.97E2,4.023E3,3.748E3,8.286E3,7.95E2,7.47E2,1.451E3,8E2,2.9E1,1.214E3,7.96E2,2.421E3,4.87E2,2.1E2,3.499E3,5.24E2,3.213E3,5.35E2,6.399E3,1.887E3,5.27E2,2.68E2,3.16E2,4.31E2,1.361E3,9E1,3.95E2,4.05E2,6E0,2.3E1,3.28E2,8.86E2,7.88E2,8E0,7.82E2,1.639E3,2.27E2,2.6E2,4.7E1,1.63E2,9.67E2,2.532E3,4.1E2,1.14E2,2.51E2,2.962E3,3E0,5.32E2,1.901E3,4.498E3,1.823E3,6.4E1,5E2,2.7E1,1.14E2,1.54E2,8E0,3.08E2,4.08E2,2.3E1,2.04E2,1.157E3,4.2E1,4.8E1,5E0,3.9E2,1.5E2,2.55E2,2.2E1,1E0,1.2E1,3.16E2,1.53E2,7.33E2,4.58E2,3.3E2,6E0,2E0,8E0,7.74E2,4E2,1.239E3,1E1,2.17E2,2.45E2,1.5E1,4E0,4.3E1,8E1,8.3E1,9.46E2,2.1E1,1.17E2,2.415E3,2.91E2,1.19E2,1.11E2,3E0,1.62E2,8.9E1,1.549E3,1.413E3,1E0,2E0,6.5E1,4.67E2,1.855E3,4.6E1,2.77E2,4.221E3,5.1E1,1.772E3,3.4E1,3E1],"tree_param":{"num_deleted":"0","num_feature":"17","num_nodes":"125","size_leaf_vector":"1"}},{"base_weights":[1.6036301E0,5.6683655E2,-2.2540195E2,3.6442682E2,8.538307E2,3.237816E1,-3.4980737E2,7.295525E2,1.4673735E2,1.1857362E3,6.894551E2,-2.651236E2,1.5036987E2,-4.8493948E2,-2.665771E2,1.188588E3,5.0885693E2,5.646292E1,4.841907E2,1.1430659E3,3.402724E3,5.766532E2,1.4319105E3,2.0813348E2,-3.70446E2,-3.4941696E2,2.1320822E2,-5.5850507E2,-1.6510544E2,-9.4050766E1,-3.3951047E2,-1.7644023E3,1.2573578E3,1.02063556E3,2.6434457E2,1.7039146E2,-2.4059946E2,1.4778059E3,7.189767E1,1.1035781E3,3.0468992E3,3.6984464E2,3.7179902E3,5.0544684E2,1.2463823E3,1.5097952E3,-1.2199149E3,1.6488734E2,1.2359042E3,-7.9596234E2,-3.5674557E2,4.8577548E2,-4.8878656E2,1.2015004E3,1.5152068E2,-1.291001E3,-5.4208765E2,-1.7426309E2,1.0384426E3,-5.70385E2,-7.6713996E0,4.7765546E2,-3.6320886E2,-6.397943E2,2.2709303E2,3.5377792E2,-7.134876E2,1.3864732E2,3.8510196E2,2.0643968E2,-1.1092509E1,1.238934E1,1.86688E2,4.1301926E1,-1.2913004E2,4.4210947E2,-9.1298416E1,5.149984E1,-3.4518652E2,1.7640154E2,3.436058E2,9.2400616E2,3.541002E2,4.0001266E2,1.0659865E3,1.4622505E2,-4.4466217E2,2.6935364E2,6.298079E2,8.004432E1,4.3991644E2,6.472093E2,-5.6134784E2,-1.02393005E2,6.775458E1,9.9728355E1,4.8656564E2,-2.5570627E2,-8.616549E1,6.050767E2,1.6757828E1,-1.4574051E2,5.5660465E1,3.971336E2,-5.0171143E2,1.3679533E2,9.530478E0,-2.5827002E2,-4.6580093E2,-1.349951E2,-2.2058011E2,1.1565295E0,-7.1156845E1,-1.1663838E2,-1.9112157E2,1.700174E2,-3.2242073E1,-1.2124979E2,2.5403639E2,-7.840767E1,-1.3069054E2],"categories":[],"categories_nodes":[],"categories_segments":[],"categories_sizes":[],"default_left":[0,0,0,0,0,0,0,0,0,0,0,0,0,0,0,0,0,0,0,0,0,0,0,0,0,0,0,0,0,0,0,0,0,0,0,0,0,0,0,0,0,0,0,0,0,0,0,0,0,0,0,0,0,0,0,0,0,0,0,0,0,0,0,0,0,0,0,0,0,0,0,0,0,0,0,0,0,0,0,0,0,0,0,0,0,0,0,0,0,0,0,0,0,0,0,0,0,0,0,0,0,0,0,0,0,0,0,0,0,0,0,0,0,0,0,0,0,0,0,0,0],"id":7,"left_children":[1,3,5,7,9,11,13,15,17,19,21,23,25,27,29,31,33,35,37,39,41,43,45,47,49,51,53,55,57,59,61,63,65,67,69,71,73,75,77,79,81,-1,83,85,87,89,91,93,95,-1,97,99,101,103,105,107,109,111,-1,113,115,117,119,-1,-1,-1,-1,-1,-1,-1,-1,-1,-1,-1,-1,-1,-1,-1,-1,-1,-1,-1,-1,-1,-1,-1,-1,-1,-1,-1,-1,-1,-1,-1,-1,-1,-1,-1,-1,-1,-1,-1,-1,-1,-1,-1,-1,-1,-1,-1,-1,-1,-1,-1,-1,-1,-1,-1,-1,-1,-1],"loss_changes":[3.2089298E9,4.1596467E8,5.722229E8,3.3404378E8,1.6083533E8,2.039517E8,1.3522944E8,1.5844736E8,8.0243736E7,8.881818E7,1.6533485E8,8.2320664E7,1.3072253E8,1.0781082E8,9.371088E7,1.0558426E8,1.3262483E8,7.043627E7,2.2766506E8,6.903398E7,6.443584E6,8.158586E7,5.574781E7,1.3174797E7,4.662184E7,5.4363652E7,2.2514571E8,4.413184E7,3.222397E7,9.11328E7,1.0157133E8,2.0915324E7,1.0626227E8,6.983126E7,1.1003974E8,9.753695E7,5.404326E7,4.780605E7,6.3473316E7,7.108928E7,7.888016E6,0E0,1.870176E6,1.2219517E8,4.226099E7,3.635296E7,2.9843968E7,1.36743E7,5.221892E6,0E0,2.9540192E7,4.9689868E7,1.4250624E7,1.8157862E8,1.4361558E8,1.0111952E7,4.1813056E7,1.3678308E7,0E0,6.162688E6,1.3368685E8,6.3955868E7,4.463072E7,0E0,0E0,0E0,0E0,0E0,0E0,0E0,0E0,0E0,0E0,0E0,0E0,0E0,0E0,0E0,0E0,0E0,0E0,0E0,0E0,0E0,0E0,0E0,0E0,0E0,0E0,0E0,0E0,0E0,0E0,0E0,0E0,0E0,0E0,0E0,0E0,0E0,0E0,0E0,0E0,0E0,0E0,0E0,0E0,0E0,0E0,0E0,0E0,0E0,0E0,0E0,0E0,0E0,0E0,0E0,0E0,0E0,0E0],"parents":[2147483647,0,0,1,1,2,2,3,3,4,4,5,5,6,6,7,7,8,8,9,9,10,10,11,11,12,12,13,13,14,14,15,15,16,16,17,17,18,18,19,19,20,20,21,21,22,22,23,23,24,24,25,25,26,26,27,27,28,28,29,29,30,30,31,31,32,32,33,33,34,34,35,35,36,36,37,37,38,38,39,39,40,40,42,42,43,43,44,44,45,45,46,46,47,47,48,48,50,50,51,51,52,52,53,53,54,54,55,55,56,56,57,57,59,59,60,60,61,61,62,62],"right_children":[2,4,6,8,10,12,14,16,18,20,22,24,26,28,30,32,34,36,38,40,42,44,46,48,50,52,54,56,58,60,62,64,66,68,70,72,74,76,78,80,82,-1,84,86,88,90,92,94,96,-1,98,100,102,104,106,108,110,112,-1,114,116,118,120,-1,-1,-1,-1,-1,-1,-1,-1,-1,-1,-1,-1,-1,-1,-1,-1,-1,-1,-1,-1,-1,-1,-1,-1,-1,-1,-1,-1,-1,-1,-1,-1,-1,-1,-1,-1,-1,-1,-1,-1,-1,-1,-1,-1,-1,-1,-1,-1,-1,-1,-1,-1,-1,-1,-1,-1,-1,-1],"split_conditions":[-6.0015893E-1,-2.781348E-1,1.6874185E-1,-1.3690597E0,-1.1127595E0,-5.1820513E-2,-5.256481E-1,-1.7191867E0,7.876807E-1,2.4376366E0,2.2113223E0,6.1496E-1,-5.5053496E-1,6.9186854E-1,-6.8010134E-1,-4.5601397E0,-6.8010134E-1,1.1857285E-1,1.1222346E0,2.1390598E0,-7.964557E-1,2.0767171E0,1.2776803E0,2.1390598E0,-4.5601397E0,-1.5541967E0,-2.1598105E-1,-4.5601397E0,5.166597E0,-1.2196428E0,-1.5541967E0,-2.8497154E-1,-5.0444907E-1,-7.307633E-1,-7.307633E-1,-5.5053496E-1,6.1496E-1,-5.0444907E-1,1.4567885E0,-1.5860245E-1,1.2485299E0,3.6984464E2,-1.2301582E0,1.4567885E0,1.0951953E0,-9.0700746E-1,2.4376366E0,-9.0700746E-1,-9.570776E-1,-7.9596234E2,-1.0878513E0,-3.4385866E-1,1.7549573E0,-6.8010134E-1,-6.792319E-2,1.7449376E-1,-6.15695E-1,-6.8010134E-1,1.0384426E3,4.0202326E-1,-2.1598105E-1,-2.781348E-1,9.3764263E-1,-6.397943E2,2.2709303E2,3.5377792E2,-7.134876E2,1.3864732E2,3.8510196E2,2.0643968E2,-1.1092509E1,1.238934E1,1.86688E2,4.1301926E1,-1.2913004E2,4.4210947E2,-9.1298416E1,5.149984E1,-3.4518652E2,1.7640154E2,3.436058E2,9.2400616E2,3.541002E2,4.0001266E2,1.0659865E3,1.4622505E2,-4.4466217E2,2.6935364E2,6.298079E2,8.004432E1,4.3991644E2,6.472093E2,-5.6134784E2,-1.02393005E2,6.775458E1,9.9728355E1,4.8656564E2,-2.5570627E2,-8.616549E1,6.050767E2,1.6757828E1,-1.4574051E2,5.5660465E1,3.971336E2,-5.0171143E2,1.3679533E2,9.530478E0,-2.5827002E2,-4.6580093E2,-1.349951E2,-2.2058011E2,1.1565295E0,-7.1156845E1,-1.1663838E2,-1.9112157E2,1.700174E2,-3.2242073E1,-1.2124979E2,2.5403639E2,-7.840767E1,-1.3069054E2],"split_indices":[16,6,16,16,16,6,15,2,7,6,6,0,7,13,3,9,3,7,7,3,13,10,2,3,9,7,7,9,16,7,7,14,6,6,6,7,0,6,7,13,1,0,2,7,15,12,6,12,6,0,2,16,13,3,10,6,15,3,0,1,7,6,16,0,0,0,0,0,0,0,0,0,0,0,0,0,0,0,0,0,0,0,0,0,0,0,0,0,0,0,0,0,0,0,0,0,0,0,0,0,0,0,0,0,0,0,0,0,0,0,0,0,0,0,0,0,0,0,0,0,0],"split_type":[0,0,0,0,0,0,0,0,0,0,0,0,0,0,0,0,0,0,0,0,0,0,0,0,0,0,0,0,0,0,0,0,0,0,0,0,0,0,0,0,0,0,0,0,0,0,0,0,0,0,0,0,0,0,0,0,0,0,0,0,0,0,0,0,0,0,0,0,0,0,0,0,0,0,0,0,0,0,0,0,0,0,0,0,0,0,0,0,0,0,0,0,0,0,0,0,0,0,0,0,0,0,0,0,0,0,0,0,0,0,0,0,0,0,0,0,0,0,0,0,0],"sum_hessian":[2.5007E4,7.165E3,1.7842E4,4.203E3,2.962E3,5.808E3,1.2034E4,1.569E3,2.634E3,9.79E2,1.983E3,1.649E3,4.159E3,4.585E3,7.449E3,5.08E2,1.061E3,2.079E3,5.55E2,9.62E2,1.7E1,1.723E3,2.6E2,3E2,1.349E3,4.64E2,3.695E3,3.727E3,8.58E2,2.214E3,5.235E3,1.1E1,4.97E2,3.42E2,7.19E2,1.503E3,5.76E2,1.62E2,3.93E2,9.44E2,1.8E1,3E0,1.4E1,1.559E3,1.64E2,2.53E2,7E0,2.89E2,1.1E1,6E0,1.343E3,6.6E1,3.98E2,2.16E2,3.479E3,8E1,3.647E3,8.57E2,1E0,3.39E2,1.875E3,1.47E2,5.088E3,9E0,2E0,4.91E2,6E0,1.53E2,1.89E2,2.72E2,4.47E2,1.214E3,2.89E2,2.17E2,3.59E2,1.49E2,1.3E1,3.62E2,3.1E1,2.59E2,6.85E2,1.4E1,4E0,2E0,1.2E1,1.534E3,2.5E1,1.35E2,2.9E1,2.3E1,2.3E2,1E0,6E0,3.9E1,2.5E2,5E0,6E0,7.9E1,1.264E3,1.2E1,5.4E1,3.71E2,2.7E1,1.99E2,1.7E1,8.57E2,2.622E3,4.7E1,3.3E1,3.165E3,4.82E2,2.86E2,5.71E2,1.71E2,1.68E2,2.79E2,1.596E3,4.9E1,9.8E1,3.177E3,1.911E3],"tree_param":{"num_deleted":"0","num_feature":"17","num_nodes":"121","size_leaf_vector":"1"}},{"base_weights":[1.354084E0,3.2451904E2,-2.1260023E2,5.293135E2,1.5807619E2,-9.512076E1,-3.0842093E2,9.115747E2,4.3096405E2,4.0642587E2,6.057552E-1,-1.4984698E3,-8.4231155E1,2.2854756E2,-3.2350388E2,9.5288525E2,-1.6250764E3,2.6386963E2,7.508177E2,5.688778E2,9.730327E1,2.4511836E2,-1.7978099E2,-1.6081605E3,-1.4574529E2,4.0905865E1,-1.9887434E2,-1.5642535E2,6.853562E2,-4.0870184E2,-2.4445958E2,2.902343E2,1.0948735E3,5.399407E1,-1.7697216E3,2.0972377E2,9.7969336E2,1.5118976E3,6.3440155E2,-3.564333E1,7.483606E2,-2.3229543E3,1.3046045E2,2.9533694E2,-1.7062662E3,-4.046691E2,-1.3275073E1,-6.6176324E2,-1.7536E3,7.183237E2,-4.0835092E2,-3.9545355E2,1.3210683E2,-2.3274963E2,1.7292966E2,-4.4306866E1,-1.3041602E3,1.47002E3,4.0495517E2,-4.2663284E2,4.9305733E1,-2.559387E2,6.726115E2,4.5400568E2,-1.5426813E1,-2.67927E2,3.0292065E2,-2.245352E2,-5.9359296E2,1.941271E2,3.1281088E1,3.7975958E2,1.0821721E2,6.7730493E2,3.513701E2,9.18542E1,2.5313826E2,5.8314938E1,-9.353658E1,4.7406854E2,1.5060806E2,-2.7917697E2,-8.12682E2,3.0362642E0,1.8583067E2,2.5565378E1,1.6964023E2,-4.5867157E1,-5.775752E2,-1.5814346E2,1.4666666E1,7.82261E1,-5.3587456E1,2.2516109E2,-2.68533E2,-1.7482396E2,-4.9244888E2,-1.18763895E1,-1.25357956E2,3.216198E2,8.415098E0,6.71888E1,-6.773924E1,7.300647E1,-4.8295325E2,7.3302284E1,-6.8632904E1,-8.416711E1,-4.4208594E2,1.0234595E3,1.2643851E2,-2.8303284E2,1.343719E2,-1.0692465E2,-1.8154265E2,-3.2027813E1,2.1601147E2,-6.070482E1,-1.5165189E2,6.6739453E2,-1.4932967E1],"categories":[],"categories_nodes":[],"categories_segments":[],"categories_sizes":[],"default_left":[0,0,0,0,0,0,0,0,0,0,0,0,0,0,0,0,0,0,0,0,0,0,0,0,0,0,0,0,0,0,0,0,0,0,0,0,0,0,0,0,0,0,0,0,0,0,0,0,0,0,0,0,0,0,0,0,0,0,0,0,0,0,0,0,0,0,0,0,0,0,0,0,0,0,0,0,0,0,0,0,0,0,0,0,0,0,0,0,0,0,0,0,0,0,0,0,0,0,0,0,0,0,0,0,0,0,0,0,0,0,0,0,0,0,0,0,0,0,0,0,0],"id":8,"left_children":[1,3,5,7,9,11,13,15,17,19,21,23,25,27,29,31,33,35,37,39,41,43,45,47,49,51,53,55,57,59,61,63,65,-1,67,69,71,73,75,77,79,81,83,85,87,89,91,93,95,-1,-1,97,99,101,103,105,107,109,111,113,115,117,119,-1,-1,-1,-1,-1,-1,-1,-1,-1,-1,-1,-1,-1,-1,-1,-1,-1,-1,-1,-1,-1,-1,-1,-1,-1,-1,-1,-1,-1,-1,-1,-1,-1,-1,-1,-1,-1,-1,-1,-1,-1,-1,-1,-1,-1,-1,-1,-1,-1,-1,-1,-1,-1,-1,-1,-1,-1,-1],"loss_changes":[1.7291855E9,3.394868E8,1.6935424E8,1.675072E8,2.1497499E8,1.0319486E8,6.719078E7,9.722221E7,1.897481E8,1.0705869E8,1.4846357E8,7.48144E6,9.627051E7,4.0027188E7,5.4186176E7,8.426797E7,4.313684E6,9.033531E7,1.0704666E8,1.517112E8,5.9366268E7,1.4053994E8,7.2525976E7,5.446424E6,2.3199412E7,1.277589E8,4.414784E7,1.5898821E7,2.2286848E7,3.1869248E7,4.4217856E7,7.7421784E7,4.2900096E7,0E0,3.802984E6,1.0379408E8,3.995795E7,3.0516416E7,9.412928E7,2.5177666E7,2.0596685E8,5.742684E6,4.8336524E7,9.307168E7,2.3580328E7,6.850536E7,6.2569548E7,4.811572E6,2.00648E6,0E0,0E0,1.340684E7,2.8379053E8,2.81E7,5.650265E7,7.625193E6,3.126988E6,6.0988656E7,1.1031479E7,2.7812224E7,1.862707E7,3.917939E7,6.824039E7,0E0,0E0,0E0,0E0,0E0,0E0,0E0,0E0,0E0,0E0,0E0,0E0,0E0,0E0,0E0,0E0,0E0,0E0,0E0,0E0,0E0,0E0,0E0,0E0,0E0,0E0,0E0,0E0,0E0,0E0,0E0,0E0,0E0,0E0,0E0,0E0,0E0,0E0,0E0,0E0,0E0,0E0,0E0,0E0,0E0,0E0,0E0,0E0,0E0,0E0,0E0,0E0,0E0,0E0,0E0,0E0,0E0,0E0],"parents":[2147483647,0,0,1,1,2,2,3,3,4,4,5,5,6,6,7,7,8,8,9,9,10,10,11,11,12,12,13,13,14,14,15,15,16,16,17,17,18,18,19,19,20,20,21,21,22,22,23,23,24,24,25,25,26,26,27,27,28,28,29,29,30,30,31,31,32,32,34,34,35,35,36,36,37,37,38,38,39,39,40,40,41,41,42,42,43,43,44,44,45,45,46,46,47,47,48,48,51,51,52,52,53,53,54,54,55,55,56,56,57,57,58,58,59,59,60,60,61,61,62,62],"right_children":[2,4,6,8,10,12,14,16,18,20,22,24,26,28,30,32,34,36,38,40,42,44,46,48,50,52,54,56,58,60,62,64,66,-1,68,70,72,74,76,78,80,82,84,86,88,90,92,94,96,-1,-1,98,100,102,104,106,108,110,112,114,116,118,120,-1,-1,-1,-1,-1,-1,-1,-1,-1,-1,-1,-1,-1,-1,-1,-1,-1,-1,-1,-1,-1,-1,-1,-1,-1,-1,-1,-1,-1,-1,-1,-1,-1,-1,-1,-1,-1,-1,-1,-1,-1,-1,-1,-1,-1,-1,-1,-1,-1,-1,-1,-1,-1,-1,-1,-1,-1,-1],"split_conditions":[-2.1570854E-1,6.1496E-1,5.5319226E-1,-1.3690597E0,-6.8010134E-1,-4.5601397E0,-6.792319E-2,1.2320874E0,1.0797509E0,1.1222346E0,-9.846093E-1,1.3428242E0,-6.8010134E-1,-7.878695E-3,-3.712202E-1,-9.570776E-1,-6.792319E-2,2.0767171E0,-9.846093E-1,-5.5053496E-1,-1.5431105E0,-1.947754E-2,-1.20437264E-1,-5.0444907E-1,-8.1506765E-1,-5.5053496E-1,1.985008E0,2.8598945E0,-6.8010134E-1,1.4567885E0,2.8598945E0,-1.8816602E0,-4.5601397E0,5.399407E1,-6.382067E-1,-6.792319E-2,-7.283091E-1,-6.8010134E-1,7.876807E-1,6.841922E-1,-2.1598105E-1,-7.266523E-1,1.3297218E0,4.792508E-1,1.1857285E-1,9.044863E-1,-4.4448343E-1,5.190558E-1,-1.6200391E0,7.183237E2,-4.0835092E2,-2.781348E-1,-2.1598105E-1,-1.5541967E0,1.1222346E0,4.0080804E-1,-1.9738619E0,-1.405456E-1,-1.783863E0,1.9628437E0,2.2113223E0,1.8346936E0,-1.8268508E0,4.5400568E2,-1.5426813E1,-2.67927E2,3.0292065E2,-2.245352E2,-5.9359296E2,1.941271E2,3.1281088E1,3.7975958E2,1.0821721E2,6.7730493E2,3.513701E2,9.18542E1,2.5313826E2,5.8314938E1,-9.353658E1,4.7406854E2,1.5060806E2,-2.7917697E2,-8.12682E2,3.0362642E0,1.8583067E2,2.5565378E1,1.6964023E2,-4.5867157E1,-5.775752E2,-1.5814346E2,1.4666666E1,7.82261E1,-5.3587456E1,2.2516109E2,-2.68533E2,-1.7482396E2,-4.9244888E2,-1.18763895E1,-1.25357956E2,3.216198E2,8.415098E0,6.71888E1,-6.773924E1,7.300647E1,-4.8295325E2,7.3302284E1,-6.8632904E1,-8.416711E1,-4.4208594E2,1.0234595E3,1.2643851E2,-2.8303284E2,1.343719E2,-1.0692465E2,-1.8154265E2,-3.2027813E1,2.1601147E2,-6.070482E1,-1.5165189E2,6.6739453E2,-1.4932967E1],"split_indices":[16,0,16,16,3,9,10,12,6,7,16,15,3,15,13,6,10,10,16,7,2,2,15,6,2,7,6,16,3,7,16,16,9,0,15,10,16,3,7,1,7,1,13,13,7,13,1,12,12,0,0,6,7,7,7,6,2,2,2,16,6,16,2,0,0,0,0,0,0,0,0,0,0,0,0,0,0,0,0,0,0,0,0,0,0,0,0,0,0,0,0,0,0,0,0,0,0,0,0,0,0,0,0,0,0,0,0,0,0,0,0,0,0,0,0,0,0,0,0,0,0],"split_type":[0,0,0,0,0,0,0,0,0,0,0,0,0,0,0,0,0,0,0,0,0,0,0,0,0,0,0,0,0,0,0,0,0,0,0,0,0,0,0,0,0,0,0,0,0,0,0,0,0,0,0,0,0,0,0,0,0,0,0,0,0,0,0,0,0,0,0,0,0,0,0,0,0,0,0,0,0,0,0,0,0,0,0,0,0,0,0,0,0,0,0,0,0,0,0,0,0,0,0,0,0,0,0,0,0,0,0,0,0,0,0,0,0,0,0,0,0,0,0,0,0],"sum_hessian":[2.5007E4,9.961E3,1.5046E4,4.465E3,5.496E3,6.76E3,8.286E3,9.12E2,3.553E3,2.132E3,3.364E3,5.1E1,6.709E3,2.26E2,8.06E3,8.98E2,1.4E1,2.335E3,1.218E3,1.397E3,7.35E2,1.428E3,1.936E3,4.7E1,4E0,3.208E3,3.501E3,1.23E2,1.03E2,3.877E3,4.183E3,1.59E2,7.39E2,1E0,1.3E1,2.172E3,1.63E2,1.6E2,1.058E3,3.2E2,1.077E3,9E0,7.26E2,1.393E3,3.5E1,8.23E2,1.113E3,7E0,4E1,1E0,3E0,5.54E2,2.654E3,3.209E3,2.92E2,1.13E2,1E1,2.6E1,7.7E1,3.731E3,1.46E2,4.132E3,5.1E1,3.1E1,1.28E2,9E0,7.3E2,5E0,8E0,3.37E2,1.835E3,9.3E1,7E1,2.6E1,1.34E2,5.38E2,5.2E2,1.77E2,1.43E2,1.7E2,9.07E2,4E0,5E0,5.99E2,1.27E2,8.7E2,5.23E2,8E0,2.7E1,5.9E2,2.33E2,4.22E2,6.91E2,1E0,6E0,3E0,3.7E1,9.1E1,4.63E2,2.3E2,2.424E3,1.16E2,3.093E3,2.79E2,1.3E1,4.5E1,6.8E1,3E0,7E0,7E0,1.9E1,4E0,7.3E1,3.32E3,4.11E2,1.2E2,2.6E1,3.752E3,3.8E2,1.4E1,3.7E1],"tree_param":{"num_deleted":"0","num_feature":"17","num_nodes":"121","size_leaf_vector":"1"}},{"base_weights":[1.033756E0,3.1840414E2,-1.2642672E2,-1.9832332E3,3.2997903E2,-1.8690073E2,4.659661E1,-1.1194166E3,-2.9930405E3,-6.6300903E2,3.5199182E2,-3.0170145E2,-8.116152E1,3.341212E2,-9.804482E0,-2.0274358E3,-4.0467892E2,-3.209962E3,-2.6542624E2,-1.8584624E3,-4.5129147E2,7.499857E2,2.9732056E2,-3.1870633E2,1.3176315E2,-2.7547603E0,-2.0097342E2,5.6926447E2,1.6744902E2,1.6151346E2,-1.1375893E2,1.7575049E2,-6.5977124E2,-1.4326898E3,2.1140256E2,-9.2618787E2,-3.3980084E2,-8.580555E2,-1.2058091E3,-1.0826161E3,-3.02352E2,7.901893E2,-1.1343423E3,6.7765857E2,2.3351251E2,-4.7715485E2,-2.7723483E2,-9.450822E2,2.077532E2,-5.8732693E1,2.5832703E2,1.8373288E2,-2.3620258E2,6.652304E2,-1.9028453E2,2.7342084E2,-3.8624405E1,1.9654694E1,3.7794904E2,-1.5418832E2,1.7832819E2,-5.1266785E2,5.8270035E1,-1.6102474E1,3.21264E2,-3.422492E2,-2.9338442E1,-3.3511044E2,1.6192684E1,-1.0915624E1,-2.3084421E2,1.6250655E2,3.1726303E2,1.21927025E2,-3.386328E2,3.516356E2,1.4870924E2,5.246507E1,2.2505333E2,-1.3930322E2,-1.3122389E1,-7.349027E1,-3.4515762E2,-8.238182E1,-4.1766486E2,1.1738503E2,-4.2477142E1,2.255755E0,-5.682666E1,-3.0573612E1,9.906993E1,1.9110489E2,-3.5241783E1,1.02820465E2,-6.855536E1,1.21074776E2,3.0119556E2,-1.1591241E2,1.0583245E2,5.257619E1,1.7898784E2,1.25497375E2,-2.0884626E1,4.401304E1,-4.628155E1,8.2578636E1,3.3079422E2,-3.828567E2,-3.8682022E1,-1.7800194E2,6.8072556E1],"categories":[],"categories_nodes":[],"categories_segments":[],"categories_sizes":[],"default_left":[0,0,0,0,0,0,0,0,0,0,0,0,0,0,0,0,0,0,0,0,0,0,0,0,0,0,0,0,0,0,0,0,0,0,0,0,0,0,0,0,0,0,0,0,0,0,0,0,0,0,0,0,0,0,0,0,0,0,0,0,0,0,0,0,0,0,0,0,0,0,0,0,0,0,0,0,0,0,0,0,0,0,0,0,0,0,0,0,0,0,0,0,0,0,0,0,0,0,0,0,0,0,0,0,0,0,0,0,0,0,0],"id":9,"left_children":[1,3,5,7,9,11,13,15,17,19,21,23,25,27,29,31,33,35,-1,37,39,41,43,45,47,49,51,53,55,57,59,-1,-1,61,63,-1,-1,-1,65,67,69,71,73,75,77,79,81,83,85,87,89,91,93,95,97,99,101,103,105,107,109,-1,-1,-1,-1,-1,-1,-1,-1,-1,-1,-1,-1,-1,-1,-1,-1,-1,-1,-1,-1,-1,-1,-1,-1,-1,-1,-1,-1,-1,-1,-1,-1,-1,-1,-1,-1,-1,-1,-1,-1,-1,-1,-1,-1,-1,-1,-1,-1,-1,-1],"loss_changes":[1.01166835E9,1.9156525E8,1.8670746E8,2.8051904E7,1.5610586E8,1.6047654E8,7.495687E7,1.2808442E7,3.820544E6,3.839155E7,1.5158835E8,4.676691E7,6.4668172E7,2.961208E7,6.885116E7,1.1622288E7,8.536274E6,1.703216E6,0E0,1.5975328E7,1.217855E7,6.468349E7,1.4875405E8,3.9951296E7,1.9835432E7,6.084204E7,3.6947896E7,2.3014312E7,9.728459E6,4.4819372E7,2.843973E7,0E0,0E0,4.251458E6,2.4578005E6,0E0,0E0,0E0,1.014562E6,4.602904E6,1.574275E7,5.908384E7,3.987778E6,6.911395E7,1.2345488E8,2.098336E7,2.4099968E7,5.690352E6,1.8715156E7,3.48974E7,2.9699688E7,3.780662E7,2.7354656E7,2.6738336E7,5.1784445E6,8.882356E6,2.9993205E6,2.4214042E7,3.493304E7,2.8975756E7,1.8275988E7,0E0,0E0,0E0,0E0,0E0,0E0,0E0,0E0,0E0,0E0,0E0,0E0,0E0,0E0,0E0,0E0,0E0,0E0,0E0,0E0,0E0,0E0,0E0,0E0,0E0,0E0,0E0,0E0,0E0,0E0,0E0,0E0,0E0,0E0,0E0,0E0,0E0,0E0,0E0,0E0,0E0,0E0,0E0,0E0,0E0,0E0,0E0,0E0,0E0,0E0],"parents":[2147483647,0,0,1,1,2,2,3,3,4,4,5,5,6,6,7,7,8,8,9,9,10,10,11,11,12,12,13,13,14,14,15,15,16,16,17,17,19,19,20,20,21,21,22,22,23,23,24,24,25,25,26,26,27,27,28,28,29,29,30,30,33,33,34,34,38,38,39,39,40,40,41,41,42,42,43,43,44,44,45,45,46,46,47,47,48,48,49,49,50,50,51,51,52,52,53,53,54,54,55,55,56,56,57,57,58,58,59,59,60,60],"right_children":[2,4,6,8,10,12,14,16,18,20,22,24,26,28,30,32,34,36,-1,38,40,42,44,46,48,50,52,54,56,58,60,-1,-1,62,64,-1,-1,-1,66,68,70,72,74,76,78,80,82,84,86,88,90,92,94,96,98,100,102,104,106,108,110,-1,-1,-1,-1,-1,-1,-1,-1,-1,-1,-1,-1,-1,-1,-1,-1,-1,-1,-1,-1,-1,-1,-1,-1,-1,-1,-1,-1,-1,-1,-1,-1,-1,-1,-1,-1,-1,-1,-1,-1,-1,-1,-1,-1,-1,-1,-1,-1,-1,-1],"split_conditions":[-6.0015893E-1,-4.5601397E0,4.792508E-1,-1.6020101E0,-1.6360204E0,-5.2902125E-2,-1.0088212E0,-1.8672097E0,3.7419203E-1,-2.3149633E0,-1.62536E0,2.4376366E0,-1.5313882E-1,6.1496E-1,-6.8010134E-1,-2.0098104E0,-1.088441E0,3.696698E-1,-2.6542624E2,-9.846093E-1,-1.4972099E0,1.2320874E0,-6.792319E-2,-4.086249E-1,-5.5053496E-1,1.0797509E0,-6.792319E-2,1.1222346E0,5.5319226E-1,6.271223E-1,2.0767171E0,1.7575049E2,-6.5977124E2,-7.307633E-1,2.6663303E-1,-9.2618787E2,-3.3980084E2,-8.580555E2,1.9675751E0,7.876807E-1,-1.8623347E0,7.876807E-1,7.294792E-1,7.876807E-1,2.0767171E0,1.3060651E0,2.2113223E0,-1.5541967E0,-3.508879E-1,8.094925E-1,1.1857285E-1,-7.266523E-1,-1.5541967E0,7.876807E-1,2.96892E-1,1.0797509E0,-1.5541967E0,1.7449376E-1,1.4567885E0,-4.5601397E0,-7.307633E-1,-5.1266785E2,5.8270035E1,-1.6102474E1,3.21264E2,-3.422492E2,-2.9338442E1,-3.3511044E2,1.6192684E1,-1.0915624E1,-2.3084421E2,1.6250655E2,3.1726303E2,1.21927025E2,-3.386328E2,3.516356E2,1.4870924E2,5.246507E1,2.2505333E2,-1.3930322E2,-1.3122389E1,-7.349027E1,-3.4515762E2,-8.238182E1,-4.1766486E2,1.1738503E2,-4.2477142E1,2.255755E0,-5.682666E1,-3.0573612E1,9.906993E1,1.9110489E2,-3.5241783E1,1.02820465E2,-6.855536E1,1.21074776E2,3.0119556E2,-1.1591241E2,1.0583245E2,5.257619E1,1.7898784E2,1.25497375E2,-2.0884626E1,4.401304E1,-4.628155E1,8.2578636E1,3.3079422E2,-3.828567E2,-3.8682022E1,-1.7800194E2,6.8072556E1],"split_indices":[16,9,13,2,6,15,1,2,14,6,16,6,14,0,3,16,15,2,0,16,16,12,10,2,7,6,10,7,16,6,10,0,0,6,13,0,0,0,13,7,6,7,3,7,10,6,6,7,14,16,7,1,7,7,16,6,7,6,7,9,6,0,0,0,0,0,0,0,0,0,0,0,0,0,0,0,0,0,0,0,0,0,0,0,0,0,0,0,0,0,0,0,0,0,0,0,0,0,0,0,0,0,0,0,0,0,0,0,0,0,0],"split_type":[0,0,0,0,0,0,0,0,0,0,0,0,0,0,0,0,0,0,0,0,0,0,0,0,0,0,0,0,0,0,0,0,0,0,0,0,0,0,0,0,0,0,0,0,0,0,0,0,0,0,0,0,0,0,0,0,0,0,0,0,0,0,0,0,0,0,0,0,0,0,0,0,0,0,0,0,0,0,0,0,0,0,0,0,0,0,0,0,0,0,0,0,0,0,0,0,0,0,0,0,0,0,0,0,0,0,0,0,0,0,0],"sum_hessian":[2.5007E4,7.165E3,1.7842E4,3.5E1,7.13E3,1.3221E4,4.621E3,2E1,1.5E1,1.54E2,6.976E3,6.338E3,6.883E3,7.57E2,3.864E3,8E0,1.2E1,1.3E1,2E0,2.2E1,1.32E2,8.41E2,6.135E3,6.099E3,2.39E2,4.161E3,2.722E3,3.13E2,4.44E2,1.459E3,2.405E3,1E0,7E0,4E0,8E0,1.1E1,2E0,6E0,1.6E1,2.4E1,1.08E2,8.24E2,1.7E1,8.8E2,5.255E3,1.263E3,4.836E3,1.5E1,2.24E2,3.427E3,7.34E2,2.28E2,2.494E3,2.78E2,3.5E1,2.93E2,1.51E2,8.82E2,5.77E2,2.113E3,2.92E2,3E0,1E0,7E0,1E0,1.5E1,1E0,2.1E1,3E0,7.4E1,3.4E1,5.55E2,2.69E2,1E0,1.6E1,1.47E2,7.33E2,4.934E3,3.21E2,1.158E3,1.05E2,4.813E3,2.3E1,8E0,7E0,1.38E2,8.6E1,2.377E3,1.05E3,1.66E2,5.68E2,8.5E1,1.43E2,6.9E1,2.425E3,1.89E2,8.9E1,2.5E1,1E1,2.45E2,4.8E1,1E1,1.41E2,5.04E2,3.78E2,5.33E2,4.4E1,1.7E1,2.096E3,2.3E1,2.69E2],"tree_param":{"num_deleted":"0","num_feature":"17","num_nodes":"111","size_leaf_vector":"1"}},{"base_weights":[6.315857E-1,2.7178702E2,-8.10212E1,1.2319841E2,4.0840823E2,1.3778825E2,-1.20971085E2,-1.4997707E2,3.713013E2,6.7807733E2,3.2055078E2,3.314104E2,1.8739416E1,-9.1813477E2,-1.10982864E2,-2.5570581E2,1.8430478E2,7.625405E2,2.4186012E2,5.5907623E2,1.7257659E3,3.3375525E2,-2.003715E3,5.2967194E2,1.1457913E2,-3.994682E1,4.043492E2,-2.8074175E3,-7.506796E2,-1.4596349E2,6.497339E1,5.962474E2,-3.0857E2,1.0174358E3,-5.929741E1,9.390323E2,-4.0551964E1,2.8064148E2,-5.90939E2,-2.0979521E2,6.570037E2,2.5474595E3,8.586575E2,4.6100098E2,1.09116455E2,-2.3059512E3,2.191211E2,6.4798145E2,6.574531E1,-2.4665839E2,1.6790973E2,1.6005682E3,-4.817586E1,1.2774124E2,8.649719E2,-2.973414E3,-2.9617923E2,-4.9984012E2,-1.0915876E3,-2.6246423E2,-8.646149E1,1.6730778E1,3.956492E2,9.2990295E1,1.0726912E3,-5.6196915E1,-2.2349413E2,3.137897E2,-4.6813422E2,-1.7949664E2,4.3363926E1,9.689191E1,3.2824472E2,-3.6221188E2,1.3875748E2,-1.2200314E2,8.857271E1,-4.0210306E2,2.8050964E2,-1.5120012E2,6.46061E1,2.365305E2,5.23003E1,8.4559424E2,3.5693417E2,9.987827E1,5.0942606E2,-6.341302E2,1.2807397E2,-1.3034693E1,9.292235E1,-2.8630133E2,-7.549719E2,-5.2651424E1,1.9059328E2,-1.4903711E2,4.4586002E1,-4.7275475E1,-3.0833243E2,3.6839185E2,3.46562E1,-1.0391454E2,7.7457715E2,8.024592E0,-5.1599335E1,-9.087138E1,5.6236893E1,7.5441724E2,1.7424828E2,-4.0803555E2,-8.733967E2,-5.1612514E1,-1.5914726E2,-2.4342822E2,-3.7764273E2,-6.246648E1,-1.6055222E2,-2.7278625E1,7.538703E1,9.6626396E1,-7.3281164E0,2.60418E2,5.3586586E1],"categories":[],"categories_nodes":[],"categories_segments":[],"categories_sizes":[],"default_left":[0,0,0,0,0,0,0,0,0,0,0,0,0,0,0,0,0,0,0,0,0,0,0,0,0,0,0,0,0,0,0,0,0,0,0,0,0,0,0,0,0,0,0,0,0,0,0,0,0,0,0,0,0,0,0,0,0,0,0,0,0,0,0,0,0,0,0,0,0,0,0,0,0,0,0,0,0,0,0,0,0,0,0,0,0,0,0,0,0,0,0,0,0,0,0,0,0,0,0,0,0,0,0,0,0,0,0,0,0,0,0,0,0,0,0,0,0,0,0,0,0,0,0],"id":10,"left_children":[1,3,5,7,9,11,13,15,17,19,21,23,25,27,29,31,33,35,37,39,41,43,45,47,49,51,53,55,57,59,61,63,65,67,69,71,73,75,77,79,81,83,85,87,89,91,-1,93,95,97,99,101,103,105,107,109,-1,111,113,115,117,119,121,-1,-1,-1,-1,-1,-1,-1,-1,-1,-1,-1,-1,-1,-1,-1,-1,-1,-1,-1,-1,-1,-1,-1,-1,-1,-1,-1,-1,-1,-1,-1,-1,-1,-1,-1,-1,-1,-1,-1,-1,-1,-1,-1,-1,-1,-1,-1,-1,-1,-1,-1,-1,-1,-1,-1,-1,-1,-1,-1,-1],"loss_changes":[5.53714E8,1.1744813E8,1.6803536E8,1.8806528E8,7.121533E7,6.8407656E7,1.2931643E8,4.673549E7,7.344974E7,9.129546E7,7.052072E7,4.851723E7,4.1632704E7,6.1482944E7,9.88228E7,4.540195E7,6.459923E7,5.120592E7,3.549885E7,5.028341E7,5.1249904E7,6.466461E7,1.2932828E7,3.2340656E7,1.046379E7,2.1636392E7,3.0850596E7,1.281168E6,1.5359832E7,9.281101E7,4.2475332E7,4.880411E7,4.915552E7,3.0688384E7,3.299563E7,4.707987E7,4.8298452E7,3.647039E7,7.329097E7,1.2086452E7,5.980427E7,2.3072944E7,1.839607E7,5.530205E7,3.0351476E7,4.362572E6,0E0,2.30856E7,7.519998E6,4.285104E6,2.216268E7,2.124813E7,1.7708698E7,5.791767E6,3.674985E7,4.62152E5,0E0,2.901844E6,3.290072E6,4.6639424E7,4.726641E7,3.4807252E7,3.7833668E7,0E0,0E0,0E0,0E0,0E0,0E0,0E0,0E0,0E0,0E0,0E0,0E0,0E0,0E0,0E0,0E0,0E0,0E0,0E0,0E0,0E0,0E0,0E0,0E0,0E0,0E0,0E0,0E0,0E0,0E0,0E0,0E0,0E0,0E0,0E0,0E0,0E0,0E0,0E0,0E0,0E0,0E0,0E0,0E0,0E0,0E0,0E0,0E0,0E0,0E0,0E0,0E0,0E0,0E0,0E0,0E0,0E0,0E0,0E0,0E0],"parents":[2147483647,0,0,1,1,2,2,3,3,4,4,5,5,6,6,7,7,8,8,9,9,10,10,11,11,12,12,13,13,14,14,15,15,16,16,17,17,18,18,19,19,20,20,21,21,22,22,23,23,24,24,25,25,26,26,27,27,28,28,29,29,30,30,31,31,32,32,33,33,34,34,35,35,36,36,37,37,38,38,39,39,40,40,41,41,42,42,43,43,44,44,45,45,47,47,48,48,49,49,50,50,51,51,52,52,53,53,54,54,55,55,57,57,58,58,59,59,60,60,61,61,62,62],"right_children":[2,4,6,8,10,12,14,16,18,20,22,24,26,28,30,32,34,36,38,40,42,44,46,48,50,52,54,56,58,60,62,64,66,68,70,72,74,76,78,80,82,84,86,88,90,92,-1,94,96,98,100,102,104,106,108,110,-1,112,114,116,118,120,122,-1,-1,-1,-1,-1,-1,-1,-1,-1,-1,-1,-1,-1,-1,-1,-1,-1,-1,-1,-1,-1,-1,-1,-1,-1,-1,-1,-1,-1,-1,-1,-1,-1,-1,-1,-1,-1,-1,-1,-1,-1,-1,-1,-1,-1,-1,-1,-1,-1,-1,-1,-1,-1,-1,-1,-1,-1,-1,-1,-1],"split_conditions":[-7.283091E-1,-5.2902125E-2,-1.0088212E0,4.792508E-1,-6.8010134E-1,-6.8010134E-1,-4.5601397E0,1.7449376E-1,-1.4549989E0,8.534366E-1,1.4567885E0,-8.755841E-2,1.3297218E0,-8.755841E-2,9.044863E-1,-1.8816602E0,-1.3690597E0,-6.15695E-1,1.9671543E-1,-9.570776E-1,-8.7222464E-2,7.1249616E-1,1.2320874E0,1.1222346E0,-1.2196428E0,-1.8887506E0,1.0797509E0,4.56147E-1,1.7449376E-1,-5.7067156E-1,2.0767171E0,-1.576067E0,1.4141711E0,1.5113334E-2,-5.838379E-1,-7.266523E-1,-1.783863E0,-1.1833919E0,-7.5076526E-1,1.1857285E-1,1.1222346E0,2.4376366E0,1.9675751E0,-4.5601397E0,-2.781348E-1,-9.570776E-1,2.191211E2,-6.50761E-1,-5.1820513E-2,2.1082225E0,-2.1598105E-1,-1.5860245E-1,1.4141711E0,-5.48637E-1,-8.583063E-1,-1.1833919E0,-2.9617923E2,-8.1506765E-1,8.534366E-1,-6.15695E-1,2.4376366E0,-6.792319E-2,4.059172E-2,9.2990295E1,1.0726912E3,-5.6196915E1,-2.2349413E2,3.137897E2,-4.6813422E2,-1.7949664E2,4.3363926E1,9.689191E1,3.2824472E2,-3.6221188E2,1.3875748E2,-1.2200314E2,8.857271E1,-4.0210306E2,2.8050964E2,-1.5120012E2,6.46061E1,2.365305E2,5.23003E1,8.4559424E2,3.5693417E2,9.987827E1,5.0942606E2,-6.341302E2,1.2807397E2,-1.3034693E1,9.292235E1,-2.8630133E2,-7.549719E2,-5.2651424E1,1.9059328E2,-1.4903711E2,4.4586002E1,-4.7275475E1,-3.0833243E2,3.6839185E2,3.46562E1,-1.0391454E2,7.7457715E2,8.024592E0,-5.1599335E1,-9.087138E1,5.6236893E1,7.5441724E2,1.7424828E2,-4.0803555E2,-8.733967E2,-5.1612514E1,-1.5914726E2,-2.4342822E2,-3.7764273E2,-6.246648E1,-1.6055222E2,-2.7278625E1,7.538703E1,9.6626396E1,-7.3281164E0,2.60418E2,5.3586586E1],"split_indices":[16,15,1,13,3,3,9,6,2,6,7,16,13,16,13,16,16,15,2,6,14,15,12,7,7,7,6,2,6,15,10,2,11,2,13,1,2,6,15,7,7,6,13,9,6,6,0,2,6,15,7,13,11,14,2,6,0,2,6,15,6,10,16,0,0,0,0,0,0,0,0,0,0,0,0,0,0,0,0,0,0,0,0,0,0,0,0,0,0,0,0,0,0,0,0,0,0,0,0,0,0,0,0,0,0,0,0,0,0,0,0,0,0,0,0,0,0,0,0,0,0,0,0],"split_type":[0,0,0,0,0,0,0,0,0,0,0,0,0,0,0,0,0,0,0,0,0,0,0,0,0,0,0,0,0,0,0,0,0,0,0,0,0,0,0,0,0,0,0,0,0,0,0,0,0,0,0,0,0,0,0,0,0,0,0,0,0,0,0,0,0,0,0,0,0,0,0,0,0,0,0,0,0,0,0,0,0,0,0,0,0,0,0,0,0,0,0,0,0,0,0,0,0,0,0,0,0,0,0,0,0,0,0,0,0,0,0,0,0,0,0,0,0,0,0,0,0,0,0],"sum_hessian":[2.5007E4,5.787E3,1.922E4,2.773E3,3.014E3,2.967E3,1.6253E4,1.32E3,1.453E3,7.39E2,2.275E3,1.129E3,1.838E3,2E2,1.6053E4,1.003E3,3.17E2,3.6E2,1.093E3,6.65E2,7.4E1,2.263E3,1.2E1,5.89E2,5.4E2,1.596E3,2.42E2,1.5E1,1.85E2,1.3391E4,2.662E3,5.8E1,9.45E2,7.1E1,2.46E2,2.95E2,6.5E1,1.045E3,4.8E1,7.5E1,5.9E2,3.7E1,3.7E1,1.444E3,8.19E2,1.1E1,1E0,4.69E2,1.2E2,6.9E1,4.71E2,7E0,1.589E3,1.52E2,9E1,1.3E1,2E0,1.08E2,7.7E1,4.526E3,8.865E3,2.324E3,3.38E2,5.5E1,3E0,7.93E2,1.52E2,6.8E1,3E0,6.5E1,1.81E2,9.6E1,1.99E2,1.9E1,4.6E1,6.3E1,9.82E2,3.1E1,1.7E1,4.2E1,3.3E1,4E2,1.9E2,2.4E1,1.3E1,2.6E1,1.1E1,6E0,1.438E3,4.91E2,3.28E2,4E0,7E0,3E1,4.39E2,1.6E1,1.04E2,6.5E1,4E0,1.4E1,4.57E2,3E0,4E0,1.029E3,5.6E2,2.2E1,1.3E2,8E0,8.2E1,3E0,1E1,2.5E1,8.3E1,5E1,2.7E1,4.14E3,3.86E2,8.526E3,3.39E2,2.64E2,2.06E3,8.6E1,2.52E2],"tree_param":{"num_deleted":"0","num_feature":"17","num_nodes":"123","size_leaf_vector":"1"}},{"base_weights":[4.942221E-1,1.1691614E2,-1.0367604E2,-1.5714929E3,1.240842E2,-3.7225372E2,-8.8899414E1,-7.973792E2,-2.0609895E3,1.13648575E2,1.1892598E3,2.625929E2,-3.7562692E2,-5.840715E2,-8.137986E1,-4.8620987E2,-3.7126874E2,-1.7901855E3,-9.1089056E2,6.1518967E1,3.2769354E2,2.6736795E2,1.90531E3,-7.632549E2,-3.6165536E2,-6.233145E2,5.48264E2,1.8776329E2,-9.53848E1,-5.341203E2,2.7965317E2,-7.9508167E2,-1.9286783E3,-1.15533295E2,1.4507018E2,2.0467783E2,5.650816E2,8.4203723E2,2.4190424E1,2.984971E3,1.6500956E3,3.1103477E0,-7.9899554E2,-4.5289014E2,-3.2501566E2,-5.205161E2,-1.0810369E3,-5.0810483E2,2.387979E2,-1.3332362E2,1.2706752E1,-7.352689E1,-4.0244592E2,-3.2437857E2,-3.3408195E1,-6.376011E2,-3.8180624E2,5.3249283E1,-4.3924538E1,6.6170715E1,8.802543E0,1.5986673E2,3.1413342E1,2.0716023E2,7.124696E1,1.8219966E2,-2.7904617E1,1.00392834E3,3.675732E2,4.0673843E2,8.286836E2,-3.713067E1,-2.2246536E2,-1.9281111E2,-1.076681E2,-8.026978E1,-1.4385698E2,-1.860796E2,-1.0385274E2,-2.0330864E2,-3.543945E2,-2.5535081E2,5.557996E0,8.842212E1,-3.0830788E1,3.658299E2,-3.67358E1,4.6248035E1,-1.8191027E1],"categories":[],"categories_nodes":[],"categories_segments":[],"categories_sizes":[],"default_left":[0,0,0,0,0,0,0,0,0,0,0,0,0,0,0,0,0,0,0,0,0,0,0,0,0,0,0,0,0,0,0,0,0,0,0,0,0,0,0,0,0,0,0,0,0,0,0,0,0,0,0,0,0,0,0,0,0,0,0,0,0,0,0,0,0,0,0,0,0,0,0,0,0,0,0,0,0,0,0,0,0,0,0,0,0,0,0,0,0],"id":11,"left_children":[1,3,5,7,9,11,13,15,17,19,21,-1,23,25,27,-1,29,31,-1,33,35,37,39,41,43,45,-1,47,49,51,-1,53,55,57,59,61,63,-1,65,67,69,-1,71,73,75,77,79,81,83,85,87,-1,-1,-1,-1,-1,-1,-1,-1,-1,-1,-1,-1,-1,-1,-1,-1,-1,-1,-1,-1,-1,-1,-1,-1,-1,-1,-1,-1,-1,-1,-1,-1,-1,-1,-1,-1,-1,-1],"loss_changes":[3.0330166E8,1.431269E8,5.2349376E7,1.7302904E7,1.3059736E8,3.486328E6,4.654059E7,8.310153E6,4.624888E6,1.2994917E8,7.474435E7,0E0,3.444584E6,2.04534E7,4.6478744E7,0E0,4.2193865E6,2.187536E6,0E0,1.3859694E8,6.649515E7,3.5286388E7,1.2709408E7,6.46096E5,2.075776E6,8.142128E6,0E0,2.1784482E7,4.8051544E7,3.3499335E6,0E0,1.215257E6,1.783056E6,4.4330116E7,7.158269E7,5.1400604E7,4.717536E7,0E0,4.0528318E6,8.034072E6,6.385088E6,0E0,2.49776E5,2.373052E6,2.59484E6,3.241356E6,1.518096E6,9.737231E6,1.785098E7,3.5485136E7,3.8681252E7,0E0,0E0,0E0,0E0,0E0,0E0,0E0,0E0,0E0,0E0,0E0,0E0,0E0,0E0,0E0,0E0,0E0,0E0,0E0,0E0,0E0,0E0,0E0,0E0,0E0,0E0,0E0,0E0,0E0,0E0,0E0,0E0,0E0,0E0,0E0,0E0,0E0,0E0],"parents":[2147483647,0,0,1,1,2,2,3,3,4,4,5,5,6,6,7,7,8,8,9,9,10,10,12,12,13,13,14,14,16,16,17,17,19,19,20,20,21,21,22,22,23,23,24,24,25,25,27,27,28,28,29,29,31,31,32,32,33,33,34,34,35,35,36,36,38,38,39,39,40,40,42,42,43,43,44,44,45,45,46,46,47,47,48,48,49,49,50,50],"right_children":[2,4,6,8,10,12,14,16,18,20,22,-1,24,26,28,-1,30,32,-1,34,36,38,40,42,44,46,-1,48,50,52,-1,54,56,58,60,62,64,-1,66,68,70,-1,72,74,76,78,80,82,84,86,88,-1,-1,-1,-1,-1,-1,-1,-1,-1,-1,-1,-1,-1,-1,-1,-1,-1,-1,-1,-1,-1,-1,-1,-1,-1,-1,-1,-1,-1,-1,-1,-1,-1,-1,-1,-1,-1,-1],"split_conditions":[4.059172E-2,-4.5601397E0,-1.1833919E0,-1.6020101E0,2.1390598E0,-1.8887506E0,-4.5601397E0,-1.2235113E0,1.5423396E0,1.3297218E0,-9.570776E-1,2.625929E2,-1.5541967E0,3.116195E0,-6.792319E-2,-4.8620987E2,1.04679875E-1,-1.0090735E0,-9.1089056E2,-5.031364E-1,7.876807E-1,-1.2409096E0,-1.385817E0,-1.2685347E0,-5.48637E-1,8.534366E-1,5.48264E2,-1.2235113E0,9.923056E-1,-1.4294899E-1,2.7965317E2,-9.0834725E-1,-3.712202E-1,-6.792319E-2,1.1985436E-1,-1.4549989E0,1.1222346E0,8.4203723E2,-5.5053496E-1,1.04679875E-1,2.6639507E0,3.1103477E0,7.294792E-1,4.2504212E-1,8.279989E-1,8.094925E-1,-7.057418E-1,5.4015297E-2,1.1222346E0,-1.8887506E0,4.5312676E-1,-7.352689E1,-4.0244592E2,-3.2437857E2,-3.3408195E1,-6.376011E2,-3.8180624E2,5.3249283E1,-4.3924538E1,6.6170715E1,8.802543E0,1.5986673E2,3.1413342E1,2.0716023E2,7.124696E1,1.8219966E2,-2.7904617E1,1.00392834E3,3.675732E2,4.0673843E2,8.286836E2,-3.713067E1,-2.2246536E2,-1.9281111E2,-1.076681E2,-8.026978E1,-1.4385698E2,-1.860796E2,-1.0385274E2,-2.0330864E2,-3.543945E2,-2.5535081E2,5.557996E0,8.842212E1,-3.0830788E1,3.658299E2,-3.67358E1,4.6248035E1,-1.8191027E1],"split_indices":[16,9,6,2,3,7,9,15,13,13,6,0,7,16,10,0,15,13,0,15,7,16,2,15,14,6,0,15,2,15,0,15,13,10,1,2,7,0,7,15,6,0,3,16,2,16,15,13,7,7,7,0,0,0,0,0,0,0,0,0,0,0,0,0,0,0,0,0,0,0,0,0,0,0,0,0,0,0,0,0,0,0,0,0,0,0,0,0,0],"split_type":[0,0,0,0,0,0,0,0,0,0,0,0,0,0,0,0,0,0,0,0,0,0,0,0,0,0,0,0,0,0,0,0,0,0,0,0,0,0,0,0,0,0,0,0,0,0,0,0,0,0,0,0,0,0,0,0,0,0,0,0,0,0,0,0,0,0,0,0,0,0,0,0,0,0,0,0,0,0,0,0,0,0,0,0,0,0,0,0,0],"sum_hessian":[2.5007E4,1.1809E4,1.3198E4,4.9E1,1.176E4,6.87E2,1.2511E4,2E1,2.9E1,1.1647E4,1.13E2,1E0,6.86E2,1.86E2,1.2325E4,5E0,1.5E1,2.6E1,3E0,9.367E3,2.28E3,5E1,6.3E1,2.2E1,6.64E2,1.84E2,2E0,6.09E2,1.1716E4,1.4E1,1E0,4E0,2.2E1,3.003E3,6.364E3,1.503E3,7.77E2,3E0,4.7E1,1E1,5.3E1,1E0,2.1E1,1.87E2,4.77E2,1.52E2,3.2E1,4.1E1,5.68E2,8.672E3,3.044E3,1.2E1,2E0,2E0,2E0,1E1,1.2E1,3.93E2,2.61E3,3.368E3,2.996E3,2.78E2,1.225E3,4.64E2,3.13E2,7E0,4E1,6E0,4E0,5E1,3E0,1E0,2E1,3E1,1.57E2,4.23E2,5.4E1,6.6E1,8.6E1,1.5E1,1.7E1,2.2E1,1.9E1,4.54E2,1.14E2,1.5E1,8.657E3,1.021E3,2.023E3],"tree_param":{"num_deleted":"0","num_feature":"17","num_nodes":"89","size_leaf_vector":"1"}},{"base_weights":[3.8208136E-1,1.7929823E2,-4.3281204E1,4.248744E2,1.0561043E2,4.9115803E1,-9.5820694E1,-8.718488E0,6.06364E2,1.2660798E2,-8.0741986E2,1.2485041E2,-1.3791908E2,3.0583194E2,-1.07453705E2,3.329461E1,-2.3179858E3,1.2589999E3,4.9463324E2,1.1105439E2,1.2803862E3,-1.3722224E2,-1.1704873E3,-1.9740755E2,2.1111229E2,-2.276521E2,2.8250122E2,8.811857E1,9.70213E2,-1.3421591E2,2.2570301E1,1.8946202E2,-5.9424567E2,-8.9859375E1,-7.150837E2,1.4753132E3,-1.4766486E3,5.510665E2,-5.0555548E2,2.9904455E1,3.092989E2,1.7783209E3,4.005776E2,-3.616886E2,1.1023405E3,6.5043085E2,-1.326058E3,9.305797E1,-2.4535144E2,5.72204E2,1.3823846E2,-2.8877866E2,-7.212566E1,-7.364659E1,5.5420264E2,8.050397E2,-2.7691263E1,2.5039592E3,7.443722E2,-2.6199133E2,-1.134727E2,-3.0595856E2,4.8188778E1,2.9773355E1,2.859686E2,-2.395261E2,4.7778614E1,1.8556923E2,5.531997E2,1.3957356E2,-6.9109174E2,3.0946548E2,1.2749722E2,-2.7339282E2,4.8923972E2,-4.369654E-1,1.6022229E2,1.6505945E2,2.0746208E1,1.0174373E1,5.3013745E2,-1.5774174E2,2.4301196E2,2.2515453E1,-2.744975E2,3.985983E2,9.745493E1,3.1867834E2,-2.5984468E1,-6.91931E1,-4.451361E2,2.2325204E2,-1.4388941E1,-1.1578595E2,-5.5249786E1,4.396957E2,9.396943E1,1.5500565E1,1.2386539E2,-2.0089662E2,-7.2218414E1,1.3440715E2,-2.8737854E1,-5.201289E1,4.704542E2,3.1470755E2,6.1229256E1,3.490157E2,-1.375211E2,-2.6289955E1,2.3642958E2,1.0885583E3,3.8531573E2,2.6604788E2,-1.498268E2,-6.754353E1,-3.7010303E2,-9.965828E1,-2.8015057E1,2.8454603E1,-1.01334946E2,2.5796432E1,-4.6387276E1],"categories":[],"categories_nodes":[],"categories_segments":[],"categories_sizes":[],"default_left":[0,0,0,0,0,0,0,0,0,0,0,0,0,0,0,0,0,0,0,0,0,0,0,0,0,0,0,0,0,0,0,0,0,0,0,0,0,0,0,0,0,0,0,0,0,0,0,0,0,0,0,0,0,0,0,0,0,0,0,0,0,0,0,0,0,0,0,0,0,0,0,0,0,0,0,0,0,0,0,0,0,0,0,0,0,0,0,0,0,0,0,0,0,0,0,0,0,0,0,0,0,0,0,0,0,0,0,0,0,0,0,0,0,0,0,0,0,0,0,0,0,0,0],"id":12,"left_children":[1,3,5,7,9,11,13,15,17,19,21,23,25,27,29,31,33,35,37,39,41,43,45,47,49,51,53,55,57,59,61,63,65,-1,-1,67,69,71,73,75,77,79,81,83,85,87,89,91,93,95,97,99,101,103,105,107,109,111,113,115,117,119,121,-1,-1,-1,-1,-1,-1,-1,-1,-1,-1,-1,-1,-1,-1,-1,-1,-1,-1,-1,-1,-1,-1,-1,-1,-1,-1,-1,-1,-1,-1,-1,-1,-1,-1,-1,-1,-1,-1,-1,-1,-1,-1,-1,-1,-1,-1,-1,-1,-1,-1,-1,-1,-1,-1,-1,-1,-1,-1,-1,-1],"loss_changes":[1.9537194E8,8.873394E7,9.759455E7,8.908533E7,7.2474264E7,1.0325184E8,5.991472E7,3.2578698E7,5.756707E7,6.6094268E7,2.0522168E7,1.4426067E8,7.932576E7,5.213122E7,4.3346544E7,3.2453032E7,3.05483E6,7.082234E7,3.882981E7,5.8597616E7,2.075392E7,9.024147E6,1.6442992E7,1.5285784E7,1.0762469E8,1.6444928E7,3.5844184E7,2.2688532E7,2.896416E7,2.7349632E7,1.7916444E7,1.8133844E7,1.5064816E7,0E0,0E0,4.740653E7,2.0753764E7,2.982024E7,4.531067E7,4.593733E7,7.4236E7,9.916728E6,9.871511E6,7.95563E6,8.533655E5,2.091739E6,1.717796E7,1.679723E7,6.943404E6,1.6210755E8,8.824046E7,1.1856744E7,9.63482E6,3.5127904E7,4.1774104E7,2.5012774E7,1.4940262E7,1.2343216E7,2.5282908E7,1.8571472E7,2.2033216E7,4.43307E6,2.0580512E7,0E0,0E0,0E0,0E0,0E0,0E0,0E0,0E0,0E0,0E0,0E0,0E0,0E0,0E0,0E0,0E0,0E0,0E0,0E0,0E0,0E0,0E0,0E0,0E0,0E0,0E0,0E0,0E0,0E0,0E0,0E0,0E0,0E0,0E0,0E0,0E0,0E0,0E0,0E0,0E0,0E0,0E0,0E0,0E0,0E0,0E0,0E0,0E0,0E0,0E0,0E0,0E0,0E0,0E0,0E0,0E0,0E0,0E0,0E0,0E0],"parents":[2147483647,0,0,1,1,2,2,3,3,4,4,5,5,6,6,7,7,8,8,9,9,10,10,11,11,12,12,13,13,14,14,15,15,16,16,17,17,18,18,19,19,20,20,21,21,22,22,23,23,24,24,25,25,26,26,27,27,28,28,29,29,30,30,31,31,32,32,35,35,36,36,37,37,38,38,39,39,40,40,41,41,42,42,43,43,44,44,45,45,46,46,47,47,48,48,49,49,50,50,51,51,52,52,53,53,54,54,55,55,56,56,57,57,58,58,59,59,60,60,61,61,62,62],"right_children":[2,4,6,8,10,12,14,16,18,20,22,24,26,28,30,32,34,36,38,40,42,44,46,48,50,52,54,56,58,60,62,64,66,-1,-1,68,70,72,74,76,78,80,82,84,86,88,90,92,94,96,98,100,102,104,106,108,110,112,114,116,118,120,122,-1,-1,-1,-1,-1,-1,-1,-1,-1,-1,-1,-1,-1,-1,-1,-1,-1,-1,-1,-1,-1,-1,-1,-1,-1,-1,-1,-1,-1,-1,-1,-1,-1,-1,-1,-1,-1,-1,-1,-1,-1,-1,-1,-1,-1,-1,-1,-1,-1,-1,-1,-1,-1,-1,-1,-1,-1,-1,-1,-1],"split_conditions":[-8.564592E-1,-6.8010134E-1,-6.8010134E-1,-7.307633E-1,-1.947754E-2,1.1222346E0,-1.5541967E0,8.366466E-1,-2.1598105E-1,2.1390598E0,-4.4448343E-1,-5.5053496E-1,1.4567885E0,2.0767171E0,9.044863E-1,1.5306989E0,-1.1833919E0,1.2320874E0,5.426242E-1,7.876807E-1,-8.323631E-1,6.8998444E-1,-1.4097061E0,-4.2592898E-1,-2.1598105E-1,4.792508E-1,2.0767171E0,-3.4385866E-1,-1.8887506E0,-8.4965855E-1,-1.1833919E0,2.1801927E0,5.0989074E-1,-8.9859375E1,-7.150837E2,-5.5053496E-1,4.0080804E-1,-1.62536E0,5.549142E-1,1.0797509E0,-5.0444907E-1,-9.0700746E-1,-9.570776E-1,-7.878695E-3,1.5113334E-2,1.2485299E0,-5.48637E-1,-7.283091E-1,-1.0209059E0,1.7449376E-1,7.876807E-1,-7.891245E-1,-7.283091E-1,2.2113223E0,5.5319226E-1,1.7644295E-1,1.7030116E0,-1.1946074E0,1.9628437E0,1.4567885E0,-1.4097061E0,6.1496E-1,8.366466E-1,2.9773355E1,2.859686E2,-2.395261E2,4.7778614E1,1.8556923E2,5.531997E2,1.3957356E2,-6.9109174E2,3.0946548E2,1.2749722E2,-2.7339282E2,4.8923972E2,-4.369654E-1,1.6022229E2,1.6505945E2,2.0746208E1,1.0174373E1,5.3013745E2,-1.5774174E2,2.4301196E2,2.2515453E1,-2.744975E2,3.985983E2,9.745493E1,3.1867834E2,-2.5984468E1,-6.91931E1,-4.451361E2,2.2325204E2,-1.4388941E1,-1.1578595E2,-5.5249786E1,4.396957E2,9.396943E1,1.5500565E1,1.2386539E2,-2.0089662E2,-7.2218414E1,1.3440715E2,-2.8737854E1,-5.201289E1,4.704542E2,3.1470755E2,6.1229256E1,3.490157E2,-1.375211E2,-2.6289955E1,2.3642958E2,1.0885583E3,3.8531573E2,2.6604788E2,-1.498268E2,-6.754353E1,-3.7010303E2,-9.965828E1,-2.8015057E1,2.8454603E1,-1.01334946E2,2.5796432E1,-4.6387276E1],"split_indices":[16,3,3,6,2,7,7,2,7,3,1,7,7,10,13,1,6,12,2,7,2,15,6,2,7,13,10,16,7,2,6,13,15,0,0,7,6,16,15,6,6,12,6,15,2,1,14,16,15,6,7,2,16,6,16,14,15,2,16,7,6,0,2,0,0,0,0,0,0,0,0,0,0,0,0,0,0,0,0,0,0,0,0,0,0,0,0,0,0,0,0,0,0,0,0,0,0,0,0,0,0,0,0,0,0,0,0,0,0,0,0,0,0,0,0,0,0,0,0,0,0,0,0],"split_type":[0,0,0,0,0,0,0,0,0,0,0,0,0,0,0,0,0,0,0,0,0,0,0,0,0,0,0,0,0,0,0,0,0,0,0,0,0,0,0,0,0,0,0,0,0,0,0,0,0,0,0,0,0,0,0,0,0,0,0,0,0,0,0,0,0,0,0,0,0,0,0,0,0,0,0,0,0,0,0,0,0,0,0,0,0,0,0,0,0,0,0,0,0,0,0,0,0,0,0,0,0,0,0,0,0,0,0,0,0,0,0,0,0,0,0,0,0,0,0,0,0,0,0],"sum_hessian":[2.5007E4,4.905E3,2.0102E4,1.131E3,3.774E3,7.287E3,1.2815E4,3.34E2,7.97E2,3.69E3,8.4E1,5.187E3,2.1E3,3.6E2,1.2455E4,3.29E2,5E0,1.15E2,6.82E2,3.642E3,4.8E1,3E1,5.4E1,1.095E3,4.092E3,1.731E3,3.69E2,2.72E2,8.8E1,1.0329E4,2.126E3,2.64E2,6.5E1,1E0,4E0,1.07E2,8E0,6.46E2,3.6E1,2.585E3,1.057E3,3E1,1.8E1,2.6E1,4E0,4E0,5E1,1.55E2,9.4E2,6.86E2,3.406E3,1.242E3,4.89E2,1.6E2,2.09E2,3.7E1,2.35E2,1E1,7.8E1,1.441E3,8.888E3,1.53E2,1.973E3,2.43E2,2.1E1,4.7E1,1.8E1,4.6E1,6.1E1,3E0,5E0,7.4E1,5.72E2,3E1,6E0,2.449E3,1.36E2,4.59E2,5.98E2,3E0,2.7E1,6E0,1.2E1,1.6E1,1E1,2E0,2E0,2E0,2E0,1.2E1,3.8E1,2.5E1,1.3E2,1.69E2,7.71E2,1.19E2,5.67E2,2.721E3,6.85E2,5.4E1,1.188E3,2.7E1,4.62E2,1.51E2,9E0,7.2E1,1.37E2,2.7E1,1E1,2.19E2,1.6E1,3E0,7E0,6.6E1,1.2E1,1.427E3,1.4E1,3.24E2,8.564E3,2.2E1,1.31E2,1.624E3,3.49E2],"tree_param":{"num_deleted":"0","num_feature":"17","num_nodes":"123","size_leaf_vector":"1"}},{"base_weights":[4.3258741E-1,1.5529349E2,-3.354637E1,1.7073442E2,-4.1460147E2,1.7295135E2,-5.6091682E1,-8.058572E2,1.7855641E2,-2.4515195E3,-2.6540552E2,2.0732556E2,-9.928272E2,-1.10082634E2,-1.4187827E1,-9.11695E2,3.7700485E2,1.5099158E2,4.4012418E2,-4.1631848E2,-9.324571E2,5.1579205E2,-3.6430716E2,4.82141E1,3.900854E2,-6.863288E2,-2.1105435E3,-2.1657733E2,-5.0868095E1,7.4448494E1,-7.34848E1,-2.891264E2,-1.2381357E3,1.6052112E2,-1.5512626E3,8.5199615E2,1.5253903E2,-3.6048236E2,8.147226E2,-9.949899E2,-2.500682E2,-1.6335439E2,2.751274E2,4.880322E2,-8.727296E0,-1.5355856E3,-3.8417853E2,-6.121268E2,-3.0933945E3,-4.4582974E2,-1.8508269E2,-2.233544E2,-2.2656258E1,5.3346462E1,6.1761914E2,-1.6012096E2,-2.3030922E1,2.3898863E1,-9.877548E1,-5.13101E2,-2.1664792E2,8.343624E1,3.0497139E1,-7.571927E2,-2.4463446E2,2.5108687E2,-5.147596E2,1.05784836E2,-1.8688702E1,1.9753639E0,-1.3109056E2,3.580183E2,1.0966828E2,-3.6645163E2,2.5170118E-1,-1.3048788E2,-2.9654034E1,-2.0671461E2,-2.3520458E1,1.8819353E2,7.1306467E0,9.120729E1,2.1419608E2,-6.407731E1,1.4020573E2,-4.5421725E2,-1.4437505E2,-2.7689173E1,-4.1479144E2,-2.1957545E2,5.311591E1,-9.345424E2,-1.1963071E2,-2.5262332E2,-9.733682E1,-4.060296E1,-8.830897E1,-2.8606197E1,-1.2571554E2,-8.635657E0,1.1237075E2,6.6868195E1,3.0876408E0,5.887439E2,1.1432481E2,-1.3813748E2,-3.3662346E1,2.8978455E0,-4.718178E1],"categories":[],"categories_nodes":[],"categories_segments":[],"categories_sizes":[],"default_left":[0,0,0,0,0,0,0,0,0,0,0,0,0,0,0,0,0,0,0,0,0,0,0,0,0,0,0,0,0,0,0,0,0,0,0,0,0,0,0,0,0,0,0,0,0,0,0,0,0,0,0,0,0,0,0,0,0,0,0,0,0,0,0,0,0,0,0,0,0,0,0,0,0,0,0,0,0,0,0,0,0,0,0,0,0,0,0,0,0,0,0,0,0,0,0,0,0,0,0,0,0,0,0,0,0,0,0,0,0],"id":13,"left_children":[1,3,5,7,9,11,13,15,17,19,21,23,25,27,29,31,-1,33,35,-1,-1,37,39,41,43,45,47,49,51,53,55,57,59,61,63,65,67,69,71,73,75,77,79,81,83,85,87,89,91,93,95,97,99,101,103,105,107,-1,-1,-1,-1,-1,-1,-1,-1,-1,-1,-1,-1,-1,-1,-1,-1,-1,-1,-1,-1,-1,-1,-1,-1,-1,-1,-1,-1,-1,-1,-1,-1,-1,-1,-1,-1,-1,-1,-1,-1,-1,-1,-1,-1,-1,-1,-1,-1,-1,-1,-1,-1],"loss_changes":[1.3159761E8,3.9669504E7,9.54905E7,3.3617464E7,3.551344E7,8.111266E7,4.1833016E7,9.430566E6,3.1282912E7,1.96644E6,8.841218E6,5.703455E7,1.8421012E7,5.0941744E7,5.4729548E7,6.551902E6,0E0,6.4081376E7,4.8907624E7,0E0,0E0,3.6989802E6,6.956039E6,5.0453036E7,3.566827E7,1.1470412E7,1.5779092E7,2.0762256E7,2.5269752E7,4.7809464E7,2.7267796E7,4.0897E5,4.823488E6,2.7613808E7,1.5247076E7,3.832985E7,1.302601E7,1.8750762E5,1.5501755E6,5.412681E6,2.759674E6,2.4912098E7,5.31813E7,3.3349152E7,2.1970026E7,8.6237E5,1.1522919E7,1.1360225E6,5.291268E6,1.42064E7,1.24658E7,2.0713704E7,1.8290292E7,3.2727204E7,4.642402E7,2.8542308E7,2.0205034E7,0E0,0E0,0E0,0E0,0E0,0E0,0E0,0E0,0E0,0E0,0E0,0E0,0E0,0E0,0E0,0E0,0E0,0E0,0E0,0E0,0E0,0E0,0E0,0E0,0E0,0E0,0E0,0E0,0E0,0E0,0E0,0E0,0E0,0E0,0E0,0E0,0E0,0E0,0E0,0E0,0E0,0E0,0E0,0E0,0E0,0E0,0E0,0E0,0E0,0E0,0E0,0E0],"parents":[2147483647,0,0,1,1,2,2,3,3,4,4,5,5,6,6,7,7,8,8,9,9,10,10,11,11,12,12,13,13,14,14,15,15,17,17,18,18,21,21,22,22,23,23,24,24,25,25,26,26,27,27,28,28,29,29,30,30,31,31,32,32,33,33,34,34,35,35,36,36,37,37,38,38,39,39,40,40,41,41,42,42,43,43,44,44,45,45,46,46,47,47,48,48,49,49,50,50,51,51,52,52,53,53,54,54,55,55,56,56],"right_children":[2,4,6,8,10,12,14,16,18,20,22,24,26,28,30,32,-1,34,36,-1,-1,38,40,42,44,46,48,50,52,54,56,58,60,62,64,66,68,70,72,74,76,78,80,82,84,86,88,90,92,94,96,98,100,102,104,106,108,-1,-1,-1,-1,-1,-1,-1,-1,-1,-1,-1,-1,-1,-1,-1,-1,-1,-1,-1,-1,-1,-1,-1,-1,-1,-1,-1,-1,-1,-1,-1,-1,-1,-1,-1,-1,-1,-1,-1,-1,-1,-1,-1,-1,-1,-1,-1,-1,-1,-1,-1,-1],"split_conditions":[-1.0088212E0,5.3148804E0,-1.2409096E0,-4.5601397E0,-1.2409096E0,1.2320874E0,-2.3299584E-1,2.7317445E0,2.4376366E0,-1.3690597E0,-9.570776E-1,-5.2902125E-2,-5.1820513E-2,-3.712202E-1,-4.1680422E-1,5.190558E-1,3.7700485E2,2.2113223E0,-9.730701E-2,-4.1631848E2,-9.324571E2,-9.0700746E-1,-5.123975E-1,9.044863E-1,1.1651883E0,-7.5076526E-1,-6.792319E-2,-1.2460229E0,-7.307633E-1,2.2113223E0,-3.712202E-1,-7.307633E-1,4.059172E-2,-9.846093E-1,-5.838379E-1,1.1222346E0,-3.508879E-1,6.1496E-1,-4.1680422E-1,4.792508E-1,6.1496E-1,-7.266523E-1,-1.576067E0,7.876807E-1,-5.1820513E-2,-8.7222464E-2,9.674392E-1,1.2485299E0,1.5113334E-2,-2.1570854E-1,-8.7222464E-2,1.1857285E-1,1.4567885E0,6.1496E-1,-6.680564E-1,-1.0744992E0,1.1222346E0,2.3898863E1,-9.877548E1,-5.13101E2,-2.1664792E2,8.343624E1,3.0497139E1,-7.571927E2,-2.4463446E2,2.5108687E2,-5.147596E2,1.05784836E2,-1.8688702E1,1.9753639E0,-1.3109056E2,3.580183E2,1.0966828E2,-3.6645163E2,2.5170118E-1,-1.3048788E2,-2.9654034E1,-2.0671461E2,-2.3520458E1,1.8819353E2,7.1306467E0,9.120729E1,2.1419608E2,-6.407731E1,1.4020573E2,-4.5421725E2,-1.4437505E2,-2.7689173E1,-4.1479144E2,-2.1957545E2,5.311591E1,-9.345424E2,-1.1963071E2,-2.5262332E2,-9.733682E1,-4.060296E1,-8.830897E1,-2.8606197E1,-1.2571554E2,-8.635657E0,1.1237075E2,6.6868195E1,3.0876408E0,5.887439E2,1.1432481E2,-1.3813748E2,-3.3662346E1,2.8978455E0,-4.718178E1],"split_indices":[1,4,16,9,16,12,15,16,6,16,6,15,6,13,14,12,0,6,2,0,0,12,2,13,14,15,10,15,6,6,13,6,16,16,13,7,14,0,14,13,0,1,2,7,6,14,14,1,2,16,14,7,7,0,2,2,7,0,0,0,0,0,0,0,0,0,0,0,0,0,0,0,0,0,0,0,0,0,0,0,0,0,0,0,0,0,0,0,0,0,0,0,0,0,0,0,0,0,0,0,0,0,0,0,0,0,0,0,0],"split_type":[0,0,0,0,0,0,0,0,0,0,0,0,0,0,0,0,0,0,0,0,0,0,0,0,0,0,0,0,0,0,0,0,0,0,0,0,0,0,0,0,0,0,0,0,0,0,0,0,0,0,0,0,0,0,0,0,0,0,0,0,0,0,0,0,0,0,0,0,0,0,0,0,0,0,0,0,0,0,0,0,0,0,0,0,0,0,0,0,0,0,0,0,0,0,0,0,0,0,0,0,0,0,0,0,0,0,0,0,0],"sum_hessian":[2.5007E4,4.499E3,2.0508E4,4.381E3,1.18E2,2.018E3,1.849E4,3.4E1,4.347E3,7E0,1.11E2,1.961E3,5.7E1,8.079E3,1.0411E4,3.3E1,1E0,3.934E3,4.13E2,5E0,2E0,1.2E1,9.9E1,1.049E3,9.12E2,4.6E1,1.1E1,2.886E3,5.193E3,4.173E3,6.238E3,1.2E1,2.1E1,3.913E3,2.1E1,1.69E2,2.44E2,3E0,9E0,1.4E1,8.5E1,5.43E2,5.06E2,7.32E2,1.8E2,1.1E1,3.5E1,5E0,6E0,3.47E2,2.539E3,7.29E2,4.464E3,4.018E3,1.55E2,2.295E3,3.943E3,2E0,1E1,7E0,1.4E1,9.48E2,2.965E3,6E0,1.5E1,1.65E2,4E0,1.17E2,1.27E2,1E0,2E0,3E0,6E0,1E1,4E0,3.1E1,5.4E1,6E1,4.83E2,1.87E2,3.19E2,4.92E2,2.4E2,1.26E2,5.4E1,9E0,2E0,2.9E1,6E0,4E0,1E0,5E0,1E0,5E1,2.97E2,2.042E3,4.97E2,4.92E2,2.37E2,4.372E3,9.2E1,7.12E2,3.306E3,1.6E1,1.39E2,2.09E2,2.086E3,3.226E3,7.17E2],"tree_param":{"num_deleted":"0","num_feature":"17","num_nodes":"109","size_leaf_vector":"1"}},{"base_weights":[1.1920668E-1,8.9927124E1,-3.3847057E1,4.9174225E1,3.3985815E2,-1.258612E2,-1.694828E-1,-3.8023426E1,2.1451758E2,7.807958E2,2.267374E2,-1.1226896E3,-1.1777617E2,2.3802217E2,-7.253859E1,1.5560927E2,-2.1367834E2,3.3319156E2,-7.86975E1,-1.4405208E2,8.8671063E2,3.0991504E2,-9.075477E1,-6.5877826E2,-8.0925635E2,-6.302389E1,-2.3218594E2,2.715246E2,-1.2356499E3,2.1373163E1,-1.2173767E2,5.8696976E1,4.283298E2,5.0593524E2,-2.64478E2,3.0854385E2,1.3513463E3,3.1209537E2,-1.7643607E2,1.1876656E3,-5.2726013E2,9.179106E2,-6.1739246E2,4.8103783E1,4.190435E2,1.5899053E3,-1.4404031E2,-1.02057056E3,-5.9983685E2,-2.2242113E2,-2.892856E1,-2.268483E2,-8.057936E2,3.2240048E2,-1.7719353E2,-2.1476975E3,-6.342328E2,4.0460773E2,1.8315581E0,-1.3229344E2,4.5702917E2,6.785695E1,-2.3717869E1,1.201726E2,-6.466687E2,1.7220592E2,-4.4567685E2,2.005254E1,-9.3107704E1,7.046476E1,1.9470863E2,5.186165E2,3.9765003E1,1.2019928E2,-1.7049103E2,7.4820724E1,-6.3014015E1,8.837201E1,4.4607755E2,-2.1606854E2,1.5120894E2,1.3565817E2,3.325818E2,1.244257E2,-2.2896984E1,1.2020011E2,-1.660034E2,6.2781055E2,2.2268777E2,3.9131808E2,-4.9883995E1,-1.00247215E2,-2.9481302E2,3.6447113E1,-1.8744144E2,-1.1316267E2,-3.2714333E1,9.098223E1,-1.3557288E1,-5.445038E1,-8.97025E1,-2.6681882E2,5.1975353E1,1.4751213E2,6.48768E1,1.4419234E2,-2.604531E2,-8.545992E2,-1.0259362E2,4.7230972E2,-2.8836786E2,-9.754077E0,3.950348E2,-2.2696802E1,2.1486954E1,-4.955848E1,-1.8957623E1,2.8921948E2,-1.6656454E1],"categories":[],"categories_nodes":[],"categories_segments":[],"categories_sizes":[],"default_left":[0,0,0,0,0,0,0,0,0,0,0,0,0,0,0,0,0,0,0,0,0,0,0,0,0,0,0,0,0,0,0,0,0,0,0,0,0,0,0,0,0,0,0,0,0,0,0,0,0,0,0,0,0,0,0,0,0,0,0,0,0,0,0,0,0,0,0,0,0,0,0,0,0,0,0,0,0,0,0,0,0,0,0,0,0,0,0,0,0,0,0,0,0,0,0,0,0,0,0,0,0,0,0,0,0,0,0,0,0,0,0,0,0,0,0,0,0,0,0],"id":14,"left_children":[1,3,5,7,9,11,13,15,17,19,21,23,25,27,29,31,33,35,37,39,41,43,45,-1,47,49,51,53,55,57,59,61,63,65,67,69,71,73,75,77,79,81,-1,83,85,87,89,91,93,95,97,99,101,103,105,107,109,111,113,115,117,-1,-1,-1,-1,-1,-1,-1,-1,-1,-1,-1,-1,-1,-1,-1,-1,-1,-1,-1,-1,-1,-1,-1,-1,-1,-1,-1,-1,-1,-1,-1,-1,-1,-1,-1,-1,-1,-1,-1,-1,-1,-1,-1,-1,-1,-1,-1,-1,-1,-1,-1,-1,-1,-1,-1,-1,-1,-1],"loss_changes":[7.628843E7,6.988579E7,5.623105E7,8.510054E7,4.780676E7,3.9052504E7,2.2902034E8,1.3149169E8,7.094253E7,1.9326936E7,2.0283248E7,1.412716E7,3.0203844E7,1.5318998E8,4.7084196E7,4.8579588E7,7.4233064E7,3.599616E7,2.251404E7,1.1343031E7,1.95244E7,1.7351044E7,1.4557794E7,0E0,8.48184E5,1.7732432E7,4.59656E6,6.918314E7,3.6485816E7,2.624078E7,4.0913536E7,3.835496E7,2.3866E7,3.9159384E7,5.158689E7,2.7639408E7,2.3029664E7,1.5098782E7,1.223027E7,1.457325E6,5.4941805E6,2.220216E7,0E0,9.913011E6,1.1868528E7,8.95319E5,1.0388152E7,2.8929E5,1.411567E6,1.140162E7,2.0965754E7,4.040728E6,2.739817E6,4.9887136E7,1.7357478E8,4.7360296E7,4.632882E7,7.935953E7,2.2278554E7,2.0886504E7,3.8294936E7,0E0,0E0,0E0,0E0,0E0,0E0,0E0,0E0,0E0,0E0,0E0,0E0,0E0,0E0,0E0,0E0,0E0,0E0,0E0,0E0,0E0,0E0,0E0,0E0,0E0,0E0,0E0,0E0,0E0,0E0,0E0,0E0,0E0,0E0,0E0,0E0,0E0,0E0,0E0,0E0,0E0,0E0,0E0,0E0,0E0,0E0,0E0,0E0,0E0,0E0,0E0,0E0,0E0,0E0,0E0,0E0,0E0,0E0],"parents":[2147483647,0,0,1,1,2,2,3,3,4,4,5,5,6,6,7,7,8,8,9,9,10,10,11,11,12,12,13,13,14,14,15,15,16,16,17,17,18,18,19,19,20,20,21,21,22,22,24,24,25,25,26,26,27,27,28,28,29,29,30,30,31,31,32,32,33,33,34,34,35,35,36,36,37,37,38,38,39,39,40,40,41,41,43,43,44,44,45,45,46,46,47,47,48,48,49,49,50,50,51,51,52,52,53,53,54,54,55,55,56,56,57,57,58,58,59,59,60,60],